element,0,1,2,3,4,5,6,7,8,9,10,11,12,13,14,15,16,17,18,19,20,21,22,23,24,25,26,27,28,29,30,31,32,33,34,35,36,37,38,39,40,41,42,43,44,45,46,47,48,49,50,51,52,53,54,55,56,57,58,59,60,61,62,63,64,65,66,67,68,69,70,71,72,73,74,75,76,77,78,79,80,81,82,83,84,85,86,87,88,89,90,91,92,93,94,95,96,97,98,99,100,101,102,103,104,105,106,107,108,109,110,111,112,113,114,115,116,117,118,119,120,121,122,123,124,125,126,127,128,129,130,131,132,133,134,135,136,137,138,139,140,141,142,143,144,145,146,147,148,149,150,151,152,153,154,155,156,157,158,159,160,161,162,163,164,165,166,167,168,169,170,171,172,173,174,175,176,177,178,179,180,181,182,183,184,185,186,187,188,189,190,191,192,193,194,195,196,197,198,199
H,0.05714642256498337,-0.22556456923484802,0.17279915511608124,0.18337109684944153,-0.11073075234889984,0.24751971662044525,0.6925342082977295,0.1173265129327774,0.46246856451034546,-0.03308701515197754,0.067433662712574,-0.014749704860150814,0.4879246652126312,-0.41672471165657043,0.3461455702781677,0.5159202218055725,-0.017214758321642876,0.010315143503248692,0.20602501928806305,0.506518542766571,0.4459245800971985,-0.20510463416576385,-0.4105861783027649,0.01561920065432787,-0.1282285898923874,0.03963422775268555,-0.24549180269241333,-0.07345570623874664,-0.09144967794418335,0.2034289538860321,0.14029042422771454,-0.124171681702137,-0.008109456859529018,-0.36158499121665955,-0.20209650695323944,-0.13302890956401825,0.057683315128088,0.06620483845472336,0.03095139004290104,-0.08259133994579315,0.11977603286504745,-0.2415793240070343,0.252226859331131,-0.0800393670797348,0.016798611730337143,0.37380123138427734,0.33426809310913086,-0.16535940766334534,-0.18320578336715698,0.5269500613212585,-0.17450644075870514,0.13383670151233673,0.1732770949602127,0.0683562383055687,-0.284208208322525,0.34998345375061035,0.2167234718799591,-0.33312347531318665,0.11866831034421921,-0.29306572675704956,0.2339158058166504,0.3702559471130371,0.15043596923351288,0.5610674023628235,-0.03476564586162567,0.16203522682189941,0.06303953379392624,0.08696458488702774,-0.29047921299934387,-0.1538705825805664,0.16553464531898499,0.19848494231700897,-0.31681355834007263,-0.19778501987457275,0.012712887488305569,0.22534793615341187,-0.3354632556438446,-0.1477384716272354,0.45365384221076965,-0.1757962852716446,0.2512580454349518,-0.08354343473911285,0.05320078507065773,-0.1596415638923645,-0.2577587962150574,-0.09726706892251968,0.11373702436685562,0.29886940121650696,0.6561954617500305,0.17389944195747375,-0.1822485327720642,0.03378623351454735,-0.10921303927898407,-0.015246479772031307,-0.14044621586799622,0.06164311617612839,-0.2374698370695114,0.21834257245063782,0.04941081255674362,-0.20973464846611023,-0.03181026130914688,0.2248097062110901,-0.08357837051153183,-0.36167922616004944,-0.07192108035087585,-0.019018283113837242,-0.3032379746437073,-0.15830150246620178,0.41712096333503723,0.2698127329349518,-0.09966710209846497,0.09685605764389038,-0.12368404865264893,0.3818313181400299,-0.00494413310661912,0.07896383851766586,0.042512960731983185,0.4500473141670227,-0.1545875519514084,0.029140247032046318,-0.17905446887016296,-0.44503554701805115,-0.01769937388598919,0.09519010037183762,-0.09010821580886841,-0.10469862073659897,0.21750745177268982,-0.39712291955947876,0.1359909623861313,0.23515255749225616,0.16904020309448242,-0.06942477077245712,-0.13590949773788452,-0.2164168655872345,0.13807155191898346,-0.14276327192783356,-0.2866464853286743,0.07452046126127243,-0.2402803897857666,0.06230996176600456,-0.5478085279464722,-0.11940175294876099,0.010721174068748951,-0.18615597486495972,-0.03688203915953636,0.07796376198530197,0.1322624832391739,-0.03760631009936333,0.4138103723526001,0.11091409623622894,-0.012462858110666275,-0.018916262313723564,0.5455490946769714,-0.4342687129974365,0.10403309017419815,-0.21912457048892975,-0.050031471997499466,0.3159395158290863,-0.1942971646785736,0.2790384590625763,0.1489688605070114,0.7674955129623413,-0.3164527416229248,-0.28829991817474365,-0.0596834160387516,0.03801359236240387,0.15745149552822113,0.0019539997447282076,-0.18744602799415588,-0.2761349081993103,-0.2943626344203949,-0.01005605049431324,0.015101375058293343,-0.6021302938461304,-0.21689920127391815,-0.24678555130958557,-0.026637643575668335,-0.08598383516073227,0.21125443279743195,-0.3202778100967407,-0.34615790843963623,0.04938901588320732,0.2708849310874939,-0.11450226604938507,-0.041315313428640366,-0.011314457282423973,0.18266771733760834,-0.030316703021526337,0.12218926101922989,-0.06860518455505371,0.5069918632507324,-0.1612774282693863,-0.2184290885925293,0.043226372450590134,-0.1621968299150467,-0.0018223919905722141,-0.07074222713708878,0.17833055555820465,0.19925960898399353,0.07176834344863892
He,0.0763784795999527,0.11583089083433151,0.12513667345046997,0.2622408866882324,-0.1501149982213974,0.17652179300785065,0.7350883483886719,-0.29684197902679443,0.4258027672767639,-0.19075563549995422,0.2248864471912384,-0.02866004966199398,-0.009958792477846146,-0.322152704000473,-0.1856124848127365,0.04392746090888977,-0.18241070210933685,0.019258027896285057,0.0409148707985878,0.7133639454841614,0.19383876025676727,-0.47317200899124146,0.13103830814361572,-0.12468397617340088,-0.14311139285564423,-0.15455158054828644,0.12874451279640198,-0.24148885905742645,0.337130069732666,0.21529856324195862,-0.14591731131076813,0.060231033712625504,0.2864658236503601,0.05504906550049782,-0.4661599099636078,-0.025566043332219124,0.36729666590690613,0.2223414033651352,0.11861401051282883,-0.23778466880321503,0.34843897819519043,-0.24945758283138275,0.27168071269989014,-0.20579563081264496,0.11054448038339615,0.1781894862651825,-0.1847238391637802,-0.14539191126823425,-0.2957271635532379,0.5039616823196411,-0.35851606726646423,-0.5043914318084717,0.4421868920326233,-0.08800757676362991,0.22524209320545197,0.3516758978366852,-0.2111544907093048,-0.40005967020988464,0.051720600575208664,-0.37373924255371094,-0.2173214852809906,0.5581350922584534,0.39261770248413086,0.6058470010757446,-0.035236187279224396,0.27292850613594055,-0.059441499412059784,0.03503118082880974,-0.2806538939476013,-0.10294363647699356,0.24609676003456116,0.20624883472919464,-0.2640863060951233,-0.14197693765163422,0.0010870118858292699,-0.1663368195295334,-0.5741655230522156,0.06689837574958801,0.4673345685005188,0.15889714658260345,-0.04862002655863762,-0.5987012386322021,0.19941459596157074,-0.0722523033618927,-0.6009622812271118,0.001633947715163231,-0.3803997039794922,0.3027391731739044,0.06755436211824417,-0.09263839572668076,-0.05611155554652214,-0.08667981624603271,0.0431227833032608,0.0552106648683548,-0.31008777022361755,-0.25482377409935,-0.16547539830207825,0.46753990650177,0.11880611628293991,-0.06706637144088745,0.1365818828344345,0.31878799200057983,0.13511687517166138,-0.21427038311958313,-0.27174943685531616,-0.027593379840254784,-0.2865478992462158,-0.06001127138733864,0.03985167667269707,0.3044619560241699,-0.5593434572219849,-0.006217215675860643,-0.2470625787973404,0.34801146388053894,-0.17958135902881622,0.3379936218261719,0.05168946459889412,-0.2954772710800171,-0.193575918674469,-0.08882889151573181,-0.3910508155822754,-0.05624319612979889,-0.31070253252983093,0.15042133629322052,0.1444074958562851,-0.10922405123710632,0.08004452288150787,-0.8430271148681641,0.2646922469139099,0.2851577401161194,0.3040402829647064,0.06617283076047897,-0.39611107110977173,0.09930881857872009,-0.028123782947659492,-0.0548214428126812,-0.062024567276239395,0.6697912812232971,-0.0875210165977478,-0.31875452399253845,-0.06667561829090118,0.11254023760557175,-0.17221181094646454,-0.12711799144744873,-0.18132953345775604,-0.4506252408027649,0.2437138557434082,-0.1443122774362564,0.22225601971149445,-0.1275315135717392,-0.08952011913061142,-0.33890169858932495,0.5558528304100037,-0.4328882098197937,0.023463936522603035,-0.2824347913265228,-0.37497618794441223,0.6021862030029297,0.051570188254117966,0.6193156242370605,0.10931050777435303,0.6989884376525879,-0.06616608798503876,-0.10753865540027618,0.19889776408672333,0.10986483097076416,0.16405583918094635,-0.10460890829563141,-0.40342947840690613,-0.32416659593582153,-0.059504441916942596,-0.17083033919334412,0.1354096382856369,0.15704286098480225,0.34336695075035095,-0.2241060882806778,-0.23375585675239563,0.6480838656425476,0.23122982680797577,-0.3537837564945221,-0.6166995167732239,-0.07875063270330429,0.44746991991996765,-0.28205063939094543,0.22605569660663605,0.126496359705925,0.2672760784626007,-0.3423374891281128,0.12819254398345947,-0.023115558549761772,0.08754263818264008,-0.41823849081993103,-0.04177291318774223,-0.27353572845458984,-0.029460938647389412,0.14585551619529724,-0.002873173914849758,-0.28371578454971313,0.07409344613552094,-0.04579205811023712
Li,0.06577382236719131,0.15979516506195068,-0.050667379051446915,0.12565790116786957,-0.3764522969722748,0.5976265668869019,0.6632367968559265,-0.01358439214527607,0.15348182618618011,-0.343092143535614,-0.44182056188583374,0.09465646743774414,-0.08624843508005142,-0.7736117839813232,0.26392391324043274,0.17769178748130798,-0.26891225576400757,0.10538798570632935,0.30342409014701843,0.3957293629646301,-0.019155047833919525,-0.5411458611488342,-0.2850617468357086,0.08834293484687805,-0.2364080250263214,0.12547995150089264,0.16700096428394318,0.03090878576040268,0.43602997064590454,0.07495582848787308,0.03996293619275093,-0.04954850301146507,-0.059848006814718246,-0.035205818712711334,-0.2986127734184265,0.15634092688560486,0.0791354775428772,-0.13035082817077637,0.22062820196151733,0.046272192150354385,0.6224278211593628,-0.18832069635391235,0.21422693133354187,0.016353897750377655,-0.2775130867958069,0.09019739925861359,-0.3139957785606384,0.15327371656894684,-0.6536311507225037,0.24167610704898834,-0.14720192551612854,0.02553880400955677,0.0017550875199958682,0.06342876702547073,0.2898256778717041,0.5190944075584412,0.3736661970615387,-0.28728920221328735,-0.2748453617095947,-0.1700984239578247,0.35590583086013794,0.28838875889778137,0.16290885210037231,0.5561171770095825,0.07186511158943176,0.4483233690261841,-0.2995966970920563,-0.15959079563617706,-0.09755266457796097,0.41513967514038086,0.3133053183555603,0.3392806351184845,-0.4202103912830353,-0.05942117050290108,0.13115979731082916,-0.44211962819099426,-0.186624675989151,-0.11074505001306534,-0.24591079354286194,0.2688473165035248,0.1493295580148697,-0.09263082593679428,-0.2616684138774872,0.21028928458690643,0.44058796763420105,0.12599621713161469,-0.09252999722957611,0.4163212478160858,0.1937728077173233,-0.10463069379329681,0.05455879122018814,-0.09021422266960144,0.09802962839603424,-0.14250944554805756,0.1751936674118042,0.2302454113960266,-0.032882947474718094,-0.18541547656059265,-0.27329716086387634,0.05790165066719055,-0.06599410623311996,0.09596390277147293,-0.2985507547855377,0.30898547172546387,-0.2544562518596649,0.24725346267223358,-0.34840941429138184,0.6881991028785706,0.3889308273792267,0.028433214873075485,0.07367581129074097,-0.09165096282958984,-0.9205670356750488,-0.06941533088684082,-0.6996423006057739,0.3538338541984558,-0.11315519362688065,-0.21648213267326355,0.5612876415252686,-0.4061456024646759,-0.27741166949272156,-0.37541162967681885,0.2266779989004135,0.10852612555027008,-0.07090365886688232,0.4428524971008301,0.48701345920562744,-0.4667995274066925,0.4364537298679352,0.1561940461397171,0.18192704021930695,0.6267666816711426,0.24142999947071075,0.11459226906299591,-0.006291688419878483,-0.44297268986701965,0.2690074145793915,0.24895122647285461,0.03777174651622772,-0.1418241709470749,0.058256376534700394,-0.10207672417163849,0.14625895023345947,-0.18923921883106232,-0.3747825026512146,-0.13544265925884247,-0.08602990955114365,-0.1393434852361679,0.3443819582462311,-0.06465061008930206,0.5107240080833435,-0.20638613402843475,0.2707296311855316,-0.09892711043357849,0.1472388356924057,-0.022758016362786293,-0.16564321517944336,0.6468678712844849,-0.077614426612854,0.45671746134757996,-0.02928411215543747,0.30327746272087097,-0.12843841314315796,-0.06156327575445175,0.15252137184143066,0.3082658052444458,-0.27098095417022705,-0.23877456784248352,0.22005583345890045,-0.22582311928272247,0.010659696534276009,-0.0675288662314415,0.19736820459365845,0.07435289770364761,0.12958942353725433,-0.12619225680828094,0.14804328978061676,0.159474179148674,-0.27371877431869507,-0.2368612289428711,0.1049206480383873,-0.02569742687046528,0.30394306778907776,-0.03416648134589195,0.354544073343277,0.25468531250953674,-0.15816016495227814,0.021243177354335785,-0.10689978301525116,0.010396917350590229,-0.2185972034931183,0.11445672065019608,-0.06055417284369469,-0.1690024882555008,0.23755963146686554,0.31044286489486694,0.045371588319540024,0.4367249608039856,-0.05798032879829407,0.21475611627101898
Be,-0.01683298870921135,-0.16208162903785706,0.08560894429683685,-0.0138853769749403,-0.7132807970046997,0.32332125306129456,0.8926117420196533,0.19387464225292206,0.3171904385089874,-0.2353205531835556,0.264111191034317,-0.026308400556445122,-0.23668956756591797,-0.402366042137146,-0.21898198127746582,0.11282453685998917,-0.18684828281402588,0.24356700479984283,-0.1537182480096817,0.23223304748535156,0.014306193217635155,-0.5195959210395813,0.01795634813606739,0.015899965539574623,-0.390897661447525,0.026259055361151695,0.18864433467388153,0.14782728254795074,0.35872724652290344,-0.043834250420331955,-0.05766352266073227,0.12890829145908356,0.15365184843540192,0.02922143042087555,-0.40493044257164,-0.17809270322322845,0.11803723126649857,0.12029754370450974,0.11967771500349045,-0.4861292541027069,0.5661824345588684,0.009569542482495308,-0.21583068370819092,-0.5200890302658081,-0.34033069014549255,0.17617212235927582,0.2721068263053894,-0.1438143402338028,-0.907030463218689,0.08231642097234726,0.040417227894067764,-0.36444923281669617,0.08302528411149979,-0.08843211829662323,0.3993082046508789,0.9432663321495056,0.6589402556419373,-0.031310345977544785,-0.4309862554073334,0.09290044009685516,-0.30334386229515076,0.250069797039032,0.06670500338077545,0.21856975555419922,-0.37668871879577637,0.3099554479122162,-0.08248879760503769,0.04850144311785698,-0.29415109753608704,0.19022057950496674,-0.062387604266405106,0.15662620961666107,-0.29745373129844666,0.31131500005722046,0.11419152468442917,-0.3070753216743469,-0.25990942120552063,-0.14743660390377045,0.0354730524122715,-0.6111006140708923,0.08295406401157379,-0.16468589007854462,-0.17676132917404175,-0.031436920166015625,-0.2513486444950104,-0.05658780038356781,-0.34085971117019653,0.14586716890335083,0.10550952702760696,-0.21805284917354584,-0.4462355375289917,-0.250232458114624,-0.2022157609462738,0.09442232549190521,-0.3488551676273346,0.3447960317134857,-0.07251980900764465,-0.1282309591770172,0.37413015961647034,0.131390780210495,0.4125891625881195,0.4172055125236511,-0.06591495126485825,-0.09748199582099915,0.11361169070005417,-0.17469443380832672,0.01807827316224575,0.3224586248397827,-0.3129805326461792,0.14974385499954224,-0.21144738793373108,-0.10882679373025894,-0.5354593992233276,0.39898189902305603,-0.446193128824234,0.2962809205055237,0.08523942530155182,-0.049409281462430954,0.06844969838857651,-0.5167163014411926,-0.14828787744045258,-0.36147749423980713,-0.1186206117272377,-0.162734717130661,-0.39117947220802307,0.14994774758815765,0.1345919519662857,-0.7344564199447632,0.47467318177223206,-0.037023454904556274,0.5074618458747864,0.06179407984018326,0.4546213150024414,-0.08582768589258194,0.6845889687538147,0.32786235213279724,-0.04345039278268814,0.16049954295158386,0.40986713767051697,-0.2155458629131317,-0.05212320387363434,-0.3083953261375427,0.019741998985409737,-0.07773011177778244,-0.3998360335826874,-0.12176086008548737,0.09733652323484421,-0.32658979296684265,0.3237895965576172,0.053712330758571625,0.11501491814851761,-0.45791423320770264,0.49409258365631104,-0.14879082143306732,-0.175310418009758,-0.40413525700569153,-0.21022863686084747,0.536342978477478,0.08687563240528107,0.653113842010498,0.23629634082317352,0.5407698750495911,-0.5775667428970337,-0.04175568372011185,0.19380693137645721,-0.06362422555685043,0.04353441298007965,-0.313803106546402,-0.1509842574596405,-0.13883936405181885,0.03227543085813522,-0.16833727061748505,-0.2863048315048218,0.16724783182144165,-0.07936716079711914,-0.5040001273155212,0.32740288972854614,0.2849230170249939,-0.28558337688446045,-0.14280584454536438,-0.14873762428760529,-0.42469459772109985,0.25256460905075073,-0.53299480676651,-0.15841327607631683,-0.1434052735567093,0.1662570834159851,0.24782930314540863,0.3552822768688202,-0.18079663813114166,-0.2828195095062256,0.17627599835395813,-0.11563586443662643,-0.24495245516300201,-0.15374740958213806,0.1300998330116272,0.490355908870697,0.35797664523124695,-0.35060518980026245,0.09670450538396835
B,-0.3706240952014923,-0.05600341781973839,0.18453416228294373,0.3697928488254547,-0.20537662506103516,0.22651442885398865,0.42137134075164795,0.21627555787563324,0.12285204976797104,-0.38959240913391113,-0.09054063260555267,-0.01809210516512394,0.3296767473220825,-0.7196409702301025,0.0383237786591053,0.41086310148239136,-0.05619185045361519,-0.029989728704094887,-0.07109443098306656,0.13980190455913544,0.07509520649909973,-0.3323756754398346,-0.3865111470222473,0.45674774050712585,-0.026621559634804726,0.0038650028873234987,0.20359334349632263,0.25515538454055786,0.39678841829299927,-0.1485028862953186,0.07958108186721802,-0.013386404141783714,-0.1641673445701599,0.18065288662910461,0.19982050359249115,-0.24405057728290558,-0.21990397572517395,-0.1377774178981781,-0.10797075927257538,-0.017144624143838882,0.2333468496799469,-0.09088638424873352,-0.24861282110214233,-0.08254357427358627,-0.021504180505871773,-0.08396052569150925,0.15589621663093567,-0.30292922258377075,-0.4784664809703827,0.08504427969455719,0.3906930983066559,0.3248063325881958,0.16840308904647827,-0.11084458231925964,0.06567365676164627,0.4774214029312134,0.54473876953125,-0.30746710300445557,0.25813567638397217,0.03865727782249451,0.21062584221363068,0.08894391357898712,0.1938851773738861,0.29485246539115906,-0.05218859389424324,0.006441178265959024,-0.21079474687576294,-0.2940198481082916,-0.01709633134305477,0.1527220755815506,0.19326694309711456,0.13109196722507477,-0.22488965094089508,-0.14870983362197876,-0.12434941530227661,0.1720498502254486,-0.33416497707366943,-0.37295064330101013,-0.1569138467311859,-0.4013008177280426,0.30979400873184204,0.12636798620224,-0.09664628654718399,0.044100355356931686,-0.10402082651853561,-0.02140054479241371,0.12891283631324768,-0.02672530524432659,0.4831283986568451,-0.5132009983062744,-0.19843418896198273,-0.0267527736723423,-0.06739804893732071,-0.20581789314746857,0.07322990149259567,0.1461395025253296,-0.1527082771062851,-0.12750805914402008,0.06804663687944412,0.15409882366657257,-0.03803218901157379,-0.03020341694355011,-0.0628785714507103,0.1735668033361435,-0.32739919424057007,0.008495936170220375,-0.06479881703853607,-0.2295096218585968,0.17568254470825195,-0.09867692738771439,0.39056313037872314,0.4448963403701782,-0.3596856892108917,0.28133368492126465,-0.2234743982553482,0.0051192729733884335,0.26875171065330505,0.05282742902636528,-0.05080007389187813,-0.041319750249385834,0.0676470398902893,-0.6102526187896729,-0.01788170263171196,0.21144621074199677,0.1643601804971695,0.2748847007751465,0.2915889024734497,-0.3345800042152405,-0.10289526730775833,0.13154742121696472,0.10872908681631088,0.03296734020113945,-0.21068935096263885,0.30475279688835144,-0.08795612305402756,0.13149453699588776,0.05962395668029785,-0.2313041090965271,0.15007524192333221,-0.1383514255285263,-0.12828047573566437,-0.23250536620616913,0.06981708109378815,-0.08623208105564117,-0.33717313408851624,0.33391210436820984,0.09274893999099731,-0.06359704583883286,0.20439748466014862,0.21545922756195068,-0.14943109452724457,-0.24651341140270233,0.2761944532394409,-0.3776286840438843,-0.29091939330101013,-0.4125656485557556,-0.03250988572835922,0.4711534380912781,0.12383605539798737,-0.226013645529747,-0.2289971262216568,0.8203032612800598,-0.4193635880947113,-0.18489404022693634,0.26727890968322754,-0.03657924383878708,-0.22519782185554504,0.033019281923770905,-0.26026034355163574,-0.31204262375831604,-0.15121765434741974,0.18188798427581787,-0.3761883080005646,-0.1234169602394104,-0.2815075218677521,-0.370647668838501,0.05200487747788429,-0.11616534739732742,0.06780847162008286,-0.2828090488910675,-0.2197982370853424,-0.5851419568061829,0.13405345380306244,-0.5881211757659912,-0.007288753520697355,-0.09505173563957214,0.2730644643306732,0.2374717742204666,0.22452257573604584,0.02193540893495083,0.342734158039093,-0.09423696249723434,0.1388361006975174,0.43181881308555603,-0.2651776075363159,0.14660070836544037,0.31936338543891907,0.08408615738153458,0.13074322044849396,0.14809031784534454
C,-0.044851284474134445,0.08580424636602402,0.06225613132119179,0.08566387742757797,-0.0951649621129036,0.08168616145849228,0.12646573781967163,0.05427137762308121,0.14110586047172546,0.041622597724199295,0.1529536098241806,-0.2559254765510559,0.40636271238327026,-0.3409558832645416,-0.13943487405776978,0.22358210384845734,0.07932295650243759,0.033154603093862534,-0.05746491625905037,0.4141919016838074,-0.04739001393318176,-0.24189336597919464,-0.25189998745918274,-0.04313989356160164,-0.2538604736328125,0.16112791001796722,0.06897521018981934,-0.05550751835107803,-0.06158902123570442,-0.13340553641319275,-0.1676582545042038,0.2673031985759735,-0.2813815772533417,-0.24043788015842438,0.039912737905979156,0.07561106979846954,-0.008349547162652016,0.042836982756853104,0.04101419821381569,-0.030194856226444244,0.20475497841835022,-0.23636865615844727,0.029931429773569107,0.09062138944864273,-0.09729424118995667,0.036712948232889175,0.3938799500465393,0.06169848144054413,-0.2484952211380005,0.49625372886657715,0.03747820109128952,0.27707311511039734,0.5596239566802979,0.010025507770478725,0.012401502579450607,0.292169451713562,0.3338088095188141,0.11713016033172607,0.05618731305003166,-0.17744232714176178,0.20903298258781433,0.3167791962623596,0.18924586474895477,0.32398688793182373,0.0647083967924118,0.20470666885375977,-0.10910011827945709,0.2734341025352478,-0.28899165987968445,-0.02508106455206871,0.3849683105945587,0.17859713733196259,-0.2074146419763565,0.33952268958091736,0.1578804850578308,0.06451840698719025,-0.382891446352005,-0.5640725493431091,0.052633170038461685,-0.15518683195114136,-0.01314852386713028,0.2151414453983307,-0.12295542657375336,-0.017849484458565712,-0.047032445669174194,0.014626311138272285,0.26086345314979553,0.20662720501422882,0.3942544460296631,0.04091672599315643,0.06109856814146042,0.06826862692832947,0.1469479203224182,-0.20234991610050201,0.0312974639236927,-0.06219133734703064,-0.12277848273515701,0.08230950683355331,0.17240872979164124,0.22141343355178833,0.047548990696668625,0.22885443270206451,0.009987616911530495,-0.07468698173761368,-0.30294567346572876,0.027023717761039734,-0.1485133171081543,0.27193477749824524,-0.05427083745598793,0.22499246895313263,0.16624106466770172,-0.037076614797115326,-0.22523991763591766,-0.20183280110359192,-0.16073915362358093,0.03583516925573349,-0.00800400972366333,0.3059377372264862,0.2749650180339813,-0.5471361875534058,0.239381805062294,-0.32049694657325745,0.04930102452635765,-0.24774713814258575,-0.14052094519138336,0.09789285808801651,0.19646720588207245,-0.007561765145510435,0.026772145181894302,0.3372962176799774,-0.11847984790802002,-0.19374555349349976,0.006034465506672859,0.09571456909179688,-0.28946906328201294,-0.0538218691945076,-0.30909112095832825,-0.11088845878839493,0.37076568603515625,-0.09439164400100708,-0.1800265610218048,-0.04337120056152344,-0.05191190168261528,-0.20546574890613556,-0.28694605827331543,-0.3401053845882416,0.0902012288570404,-0.3480219841003418,-0.016136260703206062,0.3009244501590729,0.16650836169719696,0.12296480685472488,0.2593233287334442,-0.08908680826425552,-0.21059702336788177,-0.2620391249656677,-0.12712059915065765,-0.058680273592472076,-0.06861737370491028,-0.03231152519583702,0.11061248928308487,0.3047613203525543,0.023051680997014046,0.20003654062747955,0.15823379158973694,0.46764761209487915,-0.08839006721973419,0.1175137609243393,-0.04058750718832016,-0.12426668405532837,-0.15392448008060455,0.16376586258411407,0.19681578874588013,-0.1633899211883545,0.1095883920788765,-0.296375036239624,0.13696947693824768,-0.04351917654275894,0.13675132393836975,-0.267568975687027,-0.39567866921424866,-0.059367530047893524,0.0753166526556015,-0.11800862103700638,-0.010809634812176228,-0.06342151015996933,0.15272098779678345,-0.2118232697248459,-0.0846945121884346,0.1331178992986679,0.3080572187900543,-0.1382114291191101,0.026629896834492683,-0.1553623229265213,0.07004455476999283,-0.17133976519107819,0.18748776614665985,0.07448650896549225,-0.0767001286149025,0.16217735409736633
N,-0.24042744934558868,-0.08494693040847778,0.38582098484039307,0.1279986947774887,-0.10874585807323456,0.3794374465942383,0.5790536403656006,0.40256816148757935,0.38731470704078674,-0.15537524223327637,0.21571685373783112,-0.45304107666015625,0.17459602653980255,-0.5734603404998779,0.13606323301792145,0.39959609508514404,0.09366385638713837,0.2394082248210907,0.16591618955135345,0.6027982831001282,0.09177831560373306,-0.23921369016170502,0.12063096463680267,-0.07334396243095398,0.1364269107580185,-0.16399915516376495,0.07705004513263702,-0.026140691712498665,0.14071495831012726,0.2860940992832184,0.1496928632259369,0.2697589695453644,-0.024440839886665344,-0.28446292877197266,0.06978093832731247,-0.1992880403995514,0.15262004733085632,0.16143997013568878,0.1285698562860489,-0.6341169476509094,0.40085652470588684,-0.03868554159998894,-0.11972052603960037,-0.05991145223379135,-0.24603022634983063,0.5271894931793213,0.475401908159256,-0.20786601305007935,-0.15019987523555756,0.41539064049720764,-0.17713171243667603,-0.06492498517036438,0.03915703296661377,0.21810117363929749,-0.31870216131210327,0.12332666665315628,0.2149011641740799,0.0008599646389484406,0.2973877191543579,-0.15095849335193634,0.07593189924955368,-0.0978301540017128,0.24157629907131195,0.44149619340896606,0.24950039386749268,0.07736899703741074,0.018361112102866173,-0.014714441262185574,-0.2911922037601471,0.046548616141080856,0.3936655819416046,0.13718271255493164,-0.19640396535396576,-0.07476809620857239,0.047758542001247406,0.3076004087924957,-0.525187075138092,-0.2938520908355713,0.0909261703491211,0.12770892679691315,0.28866755962371826,0.005124307237565517,-0.06718552112579346,-0.1316126585006714,-0.2684650123119354,-0.06501582264900208,0.07318045198917389,0.13957270979881287,0.2998558580875397,-0.13553282618522644,-0.02637156844139099,-0.0762951448559761,0.11294928193092346,-0.09187795966863632,-0.2255895584821701,0.24516043066978455,-0.3212455213069916,0.1516784429550171,0.09243139624595642,-0.1307791918516159,-0.16937808692455292,0.12580837309360504,0.20043206214904785,-0.0879473090171814,-0.17622368037700653,-0.0022654382046312094,-0.057366225868463516,0.4641094505786896,0.21090799570083618,0.12369006127119064,-0.12781338393688202,-0.02386704459786415,-0.29977354407310486,0.19347448647022247,-0.11638610064983368,0.17042821645736694,0.2373437136411667,0.0023693691473454237,0.21179276704788208,-0.1076648086309433,0.4100141227245331,-0.7545569539070129,0.1989654153585434,-0.09968757629394531,0.05135562643408775,-0.04256366565823555,-0.036889106035232544,-0.28633764386177063,0.14178551733493805,0.04530106484889984,0.02579113468527794,-0.1969817578792572,-0.3534119725227356,0.2956594228744507,0.10913397371768951,-0.11956387758255005,-0.3131641745567322,0.054163094609975815,-0.12829260528087616,-0.30616986751556396,-0.04209965839982033,-0.013030915521085262,-0.15434463322162628,-0.18125587701797485,0.19408313930034637,0.1323787420988083,0.02298407256603241,-0.25920969247817993,0.11996626853942871,0.23094747960567474,0.046479031443595886,0.41032490134239197,0.040274448692798615,-0.17189103364944458,-0.324899822473526,-0.15360715985298157,-0.13560058176517487,0.1345517784357071,0.19492654502391815,-0.13942240178585052,0.15441018342971802,0.6806413531303406,-0.02857409045100212,-0.17569568753242493,0.4400050938129425,0.3453110158443451,-0.028518525883555412,-0.15940414369106293,-0.14960962533950806,-0.11819547414779663,-0.10870134830474854,-0.3032800853252411,-0.14973917603492737,-0.234759122133255,-0.34664660692214966,-0.15007343888282776,-0.12724150717258453,-0.011322595179080963,0.16818469762802124,-0.3185238838195801,-0.442948579788208,-0.3255438804626465,0.268340528011322,-0.3191056251525879,-0.0012325964635238051,0.007159152068197727,-0.03525899723172188,-0.24470749497413635,0.27835512161254883,0.1319761574268341,0.22539417445659637,-0.14450186491012573,-0.01898200996220112,-0.2311164289712906,-0.17630641162395477,-0.06629995256662369,-0.10946550965309143,0.40132051706314087,0.0892871767282486,-0.3038391172885895
O,-0.010822429321706295,-0.2720937132835388,0.046701155602931976,0.018852198496460915,-0.2217732071876526,0.22179904580116272,0.50813889503479,0.050024088472127914,0.2533813416957855,-0.20272982120513916,0.009970888495445251,-0.07903517782688141,0.41803452372550964,-0.4671371579170227,-0.02090626209974289,0.34434056282043457,0.24102233350276947,-0.011278711259365082,0.30393388867378235,0.43953073024749756,0.017058594152331352,-0.38316696882247925,-0.08812561631202698,0.09202557057142258,-0.0006823575240559876,0.030496571213006973,-0.37844568490982056,0.16658075153827667,0.049159735441207886,0.09017647057771683,-0.19440490007400513,0.25153931975364685,-0.16652217507362366,-0.14210650324821472,0.11141404509544373,-0.275333434343338,0.13485875725746155,-0.06755845248699188,-0.06341532617807388,-0.55350261926651,0.6069961786270142,-0.02088557370007038,0.21710233390331268,-0.13091915845870972,-0.2323833703994751,0.3130151629447937,0.37912145256996155,-0.0033187291119247675,-0.32755738496780396,0.5428475141525269,-0.35249999165534973,-0.11253996193408966,0.17490644752979279,0.137766495347023,-0.28994113206863403,0.6033706665039062,0.19763751327991486,-0.14346998929977417,0.061965085566043854,-0.14125098288059235,0.30836454033851624,0.3015618324279785,0.12466040998697281,0.37360718846321106,0.4395398795604706,0.12027877569198608,0.02772674895823002,-0.30768364667892456,-0.04761507362127304,-0.26665765047073364,0.09606626629829407,-0.0891990214586258,-0.37098428606987,-0.01917753368616104,-0.06746204197406769,0.2583293318748474,-0.40393754839897156,-0.17225190997123718,0.5997039675712585,-0.1265985667705536,0.004016467835754156,0.12203243374824524,-0.026798982173204422,-0.4014463722705841,-0.1742674559354782,-0.11581050604581833,0.3138629198074341,0.37549644708633423,0.1810230314731598,0.08320316672325134,-0.30066946148872375,0.013509719632565975,-0.030895324423909187,0.11967460066080093,-0.3282962143421173,-0.07276825606822968,-0.4119696319103241,-0.06492166221141815,0.0035591444466263056,0.04812156409025192,-0.029261747375130653,0.2589985728263855,0.0540674552321434,0.011653183959424496,-0.22696912288665771,0.3049916923046112,-0.18067000806331635,0.08314000070095062,0.2199857234954834,0.24808967113494873,0.04117130860686302,0.10855428129434586,-0.1710582971572876,0.10961761325597763,0.09692686051130295,0.43576303124427795,0.12067338079214096,0.06971412152051926,0.2629086375236511,-0.0806150957942009,-0.276440292596817,-0.5315822958946228,-0.06981565803289413,0.09151589125394821,0.09172703325748444,0.293098509311676,-0.026934528723359108,-0.09993943572044373,0.006402458529919386,0.267530620098114,0.09213056415319443,-0.0954211950302124,-0.04910215362906456,0.11359530687332153,0.050363074988126755,-0.14552797377109528,-0.29119208455085754,-0.004290757235139608,-0.18934637308120728,0.20938973128795624,-0.10872729122638702,-0.002562790410593152,0.005803055129945278,0.1494051069021225,-0.3349853754043579,0.05175009369850159,-0.10555483400821686,-0.11525566130876541,0.3137133717536926,0.05123862624168396,0.17278429865837097,0.055987004190683365,0.23142009973526,-0.3954375684261322,0.051418062299489975,-0.34148234128952026,-0.3526117205619812,0.024686552584171295,0.1723809838294983,0.3936159312725067,0.18936952948570251,0.5338258743286133,-0.085991270840168,-0.3055318593978882,0.09873178601264954,0.25019776821136475,-0.206087127327919,-0.3255232870578766,-0.059094831347465515,-0.4645388126373291,-0.06705673038959503,-0.2773755192756653,-0.12654973566532135,-0.19998830556869507,0.021961672231554985,-0.3064477741718292,-0.14020727574825287,0.28659552335739136,0.11197412014007568,-0.5893609523773193,-0.45142683386802673,-0.33929988741874695,0.21313557028770447,-0.10132145881652832,-0.14613673090934753,-0.047406602650880814,-0.07137919962406158,-0.1370842307806015,-0.12563686072826385,0.0948745459318161,0.3836463987827301,-0.11221412569284439,-0.14078867435455322,-0.2976497709751129,-0.01624319888651371,0.25386613607406616,-0.13829809427261353,0.22483457624912262,-0.09293589740991592,-0.03610078617930412
F,-0.01810598373413086,-0.19983015954494476,0.42733505368232727,0.48866742849349976,0.10350349545478821,0.04596100375056267,0.7375375032424927,0.4558273255825043,0.3309572637081146,0.008819201961159706,-0.22339633107185364,-0.09055572748184204,-0.27316784858703613,-0.39361149072647095,0.2176346331834793,0.6042772531509399,-0.6007616519927979,0.32512161135673523,0.17833392322063446,0.10825024545192719,0.5336878299713135,-0.27584466338157654,-0.28563258051872253,-0.10185582935810089,-0.3943618834018707,0.6919167041778564,-0.11187085509300232,-0.12804171442985535,-0.08035404235124588,-0.5541924238204956,0.2141897976398468,0.2362091988325119,-0.31988099217414856,0.03953535482287407,0.13542892038822174,-0.2607893645763397,0.0010221196571364999,0.29244276881217957,0.031645260751247406,-0.32920005917549133,0.07208440452814102,0.3225530683994293,0.12841977179050446,-0.005881114862859249,-0.25626009702682495,0.32527488470077515,0.0410100594162941,-0.1954033374786377,0.1163908988237381,0.4858943819999695,0.2537667751312256,-0.15476009249687195,0.06216345727443695,-0.1965441256761551,0.0893227830529213,0.49819090962409973,0.13744978606700897,-0.5969418287277222,-0.08797211199998856,0.148288294672966,0.314258337020874,0.42567768692970276,0.14226453006267548,0.5338246822357178,0.00526470085605979,-0.21919256448745728,0.21358107030391693,-0.026529382914304733,-0.03757191821932793,0.07317055016756058,0.7937741279602051,0.19374047219753265,-0.47069036960601807,0.16421756148338318,-0.09370123594999313,-0.17970013618469238,-0.49437206983566284,-0.3293890058994293,0.11015165597200394,-0.38112872838974,-0.004717349540442228,0.2723052203655243,0.18511736392974854,0.1477476805448532,0.04358452931046486,-0.3023192882537842,0.15745218098163605,0.5011048913002014,0.3024621307849884,0.193806990981102,-0.09283721446990967,0.20651783049106598,-0.25265759229660034,-0.2118070274591446,0.05280040204524994,-0.017498189583420753,-0.07184460759162903,-0.13197527825832367,-0.12436424940824509,-0.1467714011669159,-0.0840979814529419,0.0016211374895647168,0.17013902962207794,-0.4848428964614868,0.08313415944576263,0.01771184615790844,-0.2941611707210541,0.12724794447422028,0.15732435882091522,0.08002924174070358,-0.1116735190153122,0.5864130258560181,-0.2516326606273651,-0.01563999056816101,0.1880810260772705,0.3610007166862488,0.07267157733440399,0.28501197695732117,0.13604342937469482,-0.4136183261871338,0.17137360572814941,-0.5129193067550659,-0.08698153495788574,-0.04870624840259552,0.07892633229494095,0.2626565098762512,-0.3109922707080841,-0.013258515857160091,0.0945800244808197,0.11845804005861282,-0.03836098313331604,0.2834008038043976,-0.3100414574146271,0.3340607285499573,0.2058636099100113,-0.021153155714273453,-0.24583250284194946,0.14911121129989624,0.5698170065879822,-0.015110996551811695,-0.0806831493973732,-0.32235482335090637,0.2230502814054489,-0.2834078371524811,-0.08032552897930145,0.30786794424057007,0.16154374182224274,0.016714103519916534,-0.028525520116090775,-0.04126022383570671,0.15490205585956573,0.08259157836437225,0.22463037073612213,0.037956949323415756,-0.3941006064414978,-0.11429581046104431,-0.318716824054718,0.622157096862793,0.05752226710319519,0.27443432807922363,0.016659660264849663,0.6153279542922974,-0.4107856750488281,-0.1054767593741417,0.6090769171714783,0.16291695833206177,-0.1605626791715622,0.06080365180969238,-0.5305987000465393,-0.06043786555528641,0.01645089127123356,-0.39463841915130615,-0.14776965975761414,0.2511521577835083,-0.24848271906375885,-0.20867936313152313,0.09806814044713974,-0.2156091332435608,-0.014078988693654537,-0.23129847645759583,-0.31843993067741394,-0.20728625357151031,0.1747506707906723,-0.13514353334903717,-0.05003601312637329,0.14051386713981628,-0.21795286238193512,0.24002423882484436,0.12900179624557495,0.4045271873474121,0.4003868103027344,-0.05255439504981041,-0.06003138795495033,-0.11154922097921371,0.3876948356628418,-0.07602494955062866,-0.28925323486328125,0.12419014424085617,0.17853794991970062,0.04635043069720268
Ne,0.1337488740682602,-0.005339330527931452,-0.11761031299829483,0.3486177325248718,-0.3347302973270416,0.12104084342718124,0.8799508810043335,-0.33828797936439514,0.6939684748649597,-0.039343152195215225,0.14157576858997345,0.2101432830095291,-0.08790773898363113,-0.3784887492656708,-0.20366238057613373,0.08684314042329788,-0.360050231218338,0.4645361006259918,-0.03559622913599014,0.7255819439888,0.2797573506832123,-0.4336616098880768,0.24239127337932587,0.29592546820640564,-0.0007579191587865353,-0.19189663231372833,-0.13089324533939362,-0.03955978900194168,0.7930379509925842,-0.01358006801456213,0.012999503873288631,0.07652878016233444,0.1281902939081192,0.17454305291175842,-0.42893126606941223,-0.0259355790913105,0.24838489294052124,0.05481908097863197,0.27451586723327637,-0.3416282832622528,0.6731190085411072,-0.04104769974946976,0.17680765688419342,-0.19587737321853638,-0.02865137718617916,0.468014657497406,-0.24651439487934113,-0.1337839812040329,-0.4692115783691406,0.3632097840309143,-0.4667617380619049,-0.627234935760498,0.6800917983055115,-0.06301718205213547,0.36556553840637207,0.381057471036911,-0.12637090682983398,-0.5377869606018066,0.1205752044916153,-0.01380238402634859,-0.49905872344970703,0.10515839606523514,0.29940229654312134,0.5643032789230347,-0.1849297732114792,0.04072721302509308,-0.21910150349140167,0.06898871064186096,-0.13554097712039948,-0.22113662958145142,0.5566186904907227,0.1219622939825058,-0.21550527215003967,-0.34200140833854675,0.04274287819862366,-0.15729877352714539,-0.2910587787628174,0.3013145625591278,0.4379520118236542,0.28105488419532776,0.13696902990341187,-0.4346158504486084,0.02763497456908226,-0.012136079370975494,-0.4836510419845581,-0.16431906819343567,-0.503792941570282,0.42493757605552673,-0.16366146504878998,0.03871997073292732,0.06578902155160904,0.08805161714553833,0.05314496532082558,-0.25453880429267883,-0.15281282365322113,0.13915272057056427,-0.1912628561258316,0.33036404848098755,0.048627741634845734,-0.14407609403133392,0.34708303213119507,0.3620418608188629,0.08572884649038315,-0.25639796257019043,0.14536042511463165,-0.03167332336306572,-0.24294303357601166,0.11516740173101425,0.5483949780464172,0.2706042230129242,-0.5465627908706665,0.08842714130878448,-0.3085066080093384,0.4247828722000122,-0.1870662271976471,0.3475034832954407,0.4889278709888458,-0.37249165773391724,-0.16200529038906097,-0.3037022650241852,-0.15307146310806274,-0.3862600028514862,-0.6724646091461182,0.16495709121227264,0.2727367877960205,-0.41679492592811584,0.2787661850452423,-0.7254946827888489,0.4398428201675415,0.2331790328025818,0.18915940821170807,0.18316034972667694,-0.37872326374053955,0.2771380841732025,0.142757385969162,-0.2963893711566925,-0.3448517620563507,0.41520652174949646,-0.15099112689495087,-0.05023110285401344,-0.09291492402553558,0.1699756234884262,-0.514569103717804,-0.27620816230773926,-0.4238666296005249,-0.07577081024646759,0.06640499085187912,-0.22755765914916992,0.09654093533754349,0.0937919169664383,0.22381974756717682,-0.37647292017936707,0.5421590805053711,-0.2639443874359131,0.05075784772634506,-0.226881742477417,-0.5903370380401611,0.6763563752174377,-0.019776994362473488,0.6505753397941589,0.13950587809085846,0.5126917958259583,-0.15539918839931488,-0.13200700283050537,0.27163422107696533,-0.03847803547978401,-0.12305700033903122,-0.36505308747291565,-0.6084059476852417,-0.33784788846969604,-0.4356113374233246,0.008680444210767746,-0.11146508157253265,0.040904492139816284,0.13235624134540558,-0.1170346811413765,-0.2055760771036148,0.5170051455497742,0.5607489347457886,-0.2659064531326294,-0.5352559089660645,0.06273141503334045,0.16817371547222137,-0.10339200496673584,0.26651209592819214,0.029301779344677925,0.3048310875892639,-0.0540151484310627,0.07656543701887131,0.0103870565071702,-0.15628580749034882,-0.3001805543899536,0.008945074863731861,-0.3379724323749542,0.3332745134830475,-0.03843410313129425,-0.13371387124061584,-0.2619357407093048,-0.2324596345424652,0.08973932266235352
Na,0.013594448566436768,0.3308722972869873,-0.10287479311227798,0.32498490810394287,-0.26053425669670105,0.2516992688179016,0.5412617325782776,-0.02046331577003002,0.007442723494023085,-0.33460456132888794,-0.25307124853134155,0.14616473019123077,0.11640547960996628,-0.49670881032943726,-0.010852393694221973,0.20799650251865387,-0.49658864736557007,0.44523996114730835,0.39598289132118225,0.5051113963127136,-0.35654041171073914,-0.5148147344589233,-0.5281342267990112,0.29233014583587646,-0.2284022718667984,0.3096714913845062,0.0027912708465009928,0.3352571427822113,0.2995041608810425,0.26148784160614014,-0.3783903419971466,-0.014242465607821941,-0.4039004445075989,-0.05022652447223663,-0.07213080674409866,-0.03309047967195511,-0.14180445671081543,-0.26809948682785034,0.22495509684085846,-0.3407710790634155,0.5906409621238708,-0.18320751190185547,-0.01904127560555935,0.03161947429180145,-0.36737170815467834,0.1611921787261963,0.06061718612909317,0.28569477796554565,-0.5188308358192444,0.04944714158773422,-0.38976046442985535,-0.23405763506889343,0.08567377924919128,-0.04154691472649574,0.2820640802383423,0.7031183838844299,0.25476163625717163,-0.5118499398231506,-0.2708495259284973,-0.12683327496051788,0.5289108753204346,0.3431021571159363,0.30719029903411865,0.4413736164569855,0.053281258791685104,0.2629232108592987,-0.2606968283653259,-0.28007596731185913,-0.3320114314556122,-0.13922126591205597,0.5193167328834534,0.19256071746349335,-0.3525606393814087,0.04488871619105339,-0.2653883695602417,-0.35340723395347595,-0.14317485690116882,-0.02902435138821602,-0.30523502826690674,0.06288968771696091,0.044326506555080414,-0.06428643316030502,-0.11359727382659912,-0.15925230085849762,0.1675504893064499,0.20554952323436737,0.21101540327072144,0.7245497703552246,0.36531415581703186,-0.4036256670951843,-0.15530313551425934,0.15222764015197754,0.028785141184926033,-0.03897978737950325,0.142434224486351,0.42904525995254517,-0.016377368941903114,0.04980524629354477,-0.280078262090683,-0.02988879196345806,0.04780042544007301,0.5987395644187927,-0.18730482459068298,0.3908557593822479,0.11047777533531189,-0.1538875550031662,-0.4363154470920563,0.5221226811408997,0.18803758919239044,0.09266449511051178,-0.012812922708690166,0.2997705638408661,-0.6236890554428101,-0.15649960935115814,-0.3184961676597595,0.1877789944410324,0.1405930370092392,-0.1614404171705246,0.08045405149459839,-0.0617186464369297,-0.3586632013320923,-0.5579709410667419,0.0008687633671797812,0.2800469994544983,0.07335987687110901,0.11662279814481735,0.2425055205821991,-0.3235303461551666,0.094953753054142,0.07969657331705093,0.44942981004714966,0.4462507963180542,0.1677725464105606,-0.039505697786808014,-0.04895957186818123,-0.4584558308124542,0.36189892888069153,0.18285971879959106,0.07614702731370926,-0.05718185380101204,-0.2184368222951889,0.17168323695659637,-0.050039492547512054,0.10977152734994888,-0.3685525059700012,0.1826063096523285,-0.14528898894786835,-0.16124075651168823,0.33306488394737244,-0.1141720563173294,0.6989150047302246,-0.2060922384262085,0.15480732917785645,-0.16062664985656738,-0.19859282672405243,0.1891489028930664,-0.0680815801024437,0.31641191244125366,-0.060944683849811554,0.4046245217323303,0.05465027317404747,0.24001844227313995,-0.035935673862695694,-0.2661968469619751,0.19894149899482727,0.4065036475658417,-0.0710519477725029,-0.2823599874973297,0.14952366054058075,-0.20599596202373505,-0.10927604138851166,0.12018420547246933,-0.09681785106658936,0.21197934448719025,0.2514326870441437,-0.04884791001677513,0.35708361864089966,0.2042684406042099,-0.14912518858909607,-0.09091552346944809,0.11370263993740082,-0.5062782764434814,0.6535642147064209,0.024768371134996414,0.5435380339622498,0.14726239442825317,-0.18480642139911652,-0.020363744348287582,-0.1060224398970604,0.08035510778427124,0.023393116891384125,0.17947755753993988,-0.36145874857902527,-0.08393660932779312,0.2388257533311844,0.25717201828956604,0.28493475914001465,0.4073176980018616,-0.39072152972221375,0.025429485365748405
Mg,-0.04729495942592621,0.2961387038230896,0.17736569046974182,-0.22091275453567505,-0.3547956347465515,0.08785885572433472,0.40493446588516235,-0.02606193721294403,-0.1896214485168457,-0.35567110776901245,0.07861834764480591,-0.1625201255083084,0.01679784059524536,-0.37448257207870483,-0.15794193744659424,0.08640001714229584,-0.01740734651684761,0.15149016678333282,-0.08183594048023224,0.6666640043258667,0.06621038168668747,-0.2739189565181732,-0.2961077094078064,0.08529885858297348,0.04374972730875015,-0.21135000884532928,-0.39809906482696533,0.212304949760437,0.18550734221935272,-0.124657541513443,-0.051727164536714554,0.11624694615602493,-0.10249325633049011,-0.06808407604694366,-0.16632220149040222,0.10886866599321365,-0.2569813132286072,-0.2911895513534546,0.3979845345020294,0.010929028503596783,0.5859313607215881,-0.12518441677093506,0.428315132856369,-0.3999301791191101,-0.4807431697845459,-0.0669887587428093,0.381465882062912,-0.3368256092071533,-0.7644904255867004,0.3991886377334595,0.07923250645399094,-0.11457744985818863,0.07561066001653671,0.006467712111771107,0.23417972028255463,0.4311080276966095,0.39497625827789307,-0.11317148804664612,-0.44466567039489746,-0.2420279085636139,0.16911467909812927,0.24739138782024384,-0.26917025446891785,0.011482607573270798,-0.19839352369308472,0.37195682525634766,-0.17340748012065887,-0.30342811346054077,-0.3002434968948364,0.4205174148082733,0.3802364766597748,0.13776233792304993,-0.37646639347076416,0.03493257984519005,0.11440431326627731,-0.24547138810157776,-0.37975820899009705,-0.3054487407207489,0.17452330887317657,-0.16148212552070618,0.21269288659095764,-0.011283444240689278,0.02489401400089264,-0.11700087785720825,0.022975550964474678,-0.006442313548177481,0.35444700717926025,0.042192406952381134,0.4609422981739044,-0.02270430326461792,-0.2573034465312958,-0.10532306879758835,0.14844991266727448,-0.04256929084658623,-0.141969233751297,0.19451741874217987,-0.005232697818428278,-0.10181450843811035,0.09145030379295349,0.06894572824239731,0.1025533452630043,0.5162661075592041,-0.09561503678560257,0.6123433709144592,-0.08252882212400436,0.19605594873428345,0.22482573986053467,0.21478737890720367,0.35020795464515686,0.08298206329345703,-0.08458731323480606,0.014949077740311623,-0.734987199306488,-0.010258312337100506,-0.37709537148475647,0.41756102442741394,0.3383169174194336,0.0452103428542614,0.342730313539505,-0.4748895764350891,-0.17385804653167725,-0.32591328024864197,0.3990657925605774,0.06876011192798615,-0.012954328209161758,0.3446989357471466,0.21449977159500122,-0.3146635890007019,-0.006237134803086519,0.1798982173204422,0.5687978863716125,0.3205296993255615,0.24267803132534027,0.14734919369220734,0.1415615677833557,-0.1855907291173935,-0.23938730359077454,0.002583365887403488,0.39800843596458435,0.20171688497066498,-0.30112552642822266,-0.3014979064464569,-0.11681366711854935,-0.055197495967149734,0.062269825488328934,-0.014078479260206223,0.07398191839456558,-0.2343142032623291,0.38213351368904114,0.13823693990707397,0.044220734387636185,-0.6049413084983826,0.3218899667263031,-0.28746497631073,0.08137182146310806,-0.16429924964904785,-0.16954563558101654,0.5167496800422668,0.13650844991207123,0.3715931177139282,0.31563591957092285,0.0880456268787384,0.0830942913889885,0.1306188404560089,0.20728598535060883,0.37235668301582336,-0.18052777647972107,-0.06680615991353989,0.13172666728496552,-0.4063262343406677,0.17518137395381927,0.19205692410469055,0.07432059943675995,-0.03372037410736084,-0.0014564328594133258,-0.3891948461532593,0.45104965567588806,0.46727555990219116,-0.47072309255599976,-0.13571634888648987,0.326134592294693,-0.5059211254119873,0.20861917734146118,-0.04101661592721939,0.19222725927829742,-0.11259631812572479,0.03941914066672325,0.02040093205869198,-0.16107140481472015,-0.0644470751285553,0.1533617526292801,0.0790523961186409,-0.08678186684846878,-0.07784447818994522,0.14835742115974426,-0.05529229715466499,0.24305732548236847,0.5369184017181396,-0.21331316232681274,0.1224885806441307
Al,-0.11151892691850662,-0.005658711772412062,0.1574234515428543,-0.052879273891448975,-0.3275909125804901,-0.005130053497850895,0.46342790126800537,0.053346872329711914,-0.23970817029476166,-0.12138383835554123,0.2270333170890808,-0.3588552176952362,-0.03590059280395508,-0.3091813921928406,0.21141304075717926,0.12496542185544968,-0.05324117839336395,-0.04890114441514015,0.13128331303596497,0.584841787815094,0.17412301898002625,-0.23185819387435913,-0.08124430477619171,-0.016410959884524345,-0.18779513239860535,-0.29662102460861206,-0.24541646242141724,0.500531792640686,-0.0856601819396019,-0.053103819489479065,0.0015378707321360707,0.34052932262420654,-0.10012658685445786,0.19783160090446472,-0.028665296733379364,-0.0675615519285202,-0.15220355987548828,-0.23607586324214935,0.2953546643257141,-0.37663209438323975,0.09067602455615997,-0.017019331455230713,0.21439503133296967,-0.32328248023986816,-0.04581939056515694,0.23277239501476288,0.23545989394187927,-0.20115913450717926,-0.6761824488639832,0.4104185700416565,-0.05485861003398895,0.03947221860289574,0.15259921550750732,0.05466805398464203,0.2047174870967865,0.6422821879386902,0.3697910010814667,-0.2581145167350769,-0.4092414677143097,-0.14704880118370056,0.12184128910303116,0.050275545567274094,-0.34425434470176697,0.031039617955684662,-0.2776910066604614,0.17698562145233154,-0.22612331807613373,-0.2539937198162079,-0.3059532940387726,0.25454631447792053,0.30113092064857483,0.031838756054639816,-0.19752630591392517,0.07866518944501877,-0.026660168543457985,-0.057110488414764404,-0.2866634130477905,-0.4337151050567627,-0.006843558046966791,-0.18705102801322937,0.12849004566669464,0.16082489490509033,0.19330547749996185,0.08925805985927582,-0.041704535484313965,-0.13003602623939514,0.11766982078552246,-0.009626190178096294,0.5162333846092224,0.04330889880657196,-0.0864848718047142,0.005508847534656525,0.2825809419155121,0.0024611609987914562,-0.26657214760780334,0.4431260824203491,-0.17421568930149078,-0.014458820223808289,0.0979289636015892,0.047490593045949936,0.13903643190860748,0.3514121174812317,-0.2567022144794464,0.26415297389030457,-0.3884468078613281,0.054549794644117355,-0.009946288540959358,0.5407621264457703,0.19789376854896545,0.0612628199160099,0.13901521265506744,-0.002753712935373187,-0.6058819890022278,-0.05570405349135399,-0.2764035165309906,0.17576320469379425,0.12231523543596268,0.16733896732330322,0.03394158184528351,-0.43012773990631104,0.020594151690602303,-0.4056371748447418,0.30330705642700195,-0.23057369887828827,-0.057642143219709396,0.3775678277015686,0.21411994099617004,-0.04341218248009682,0.20278877019882202,0.3104371726512909,0.1173076331615448,0.10733441263437271,0.10144276171922684,0.10192324966192245,0.12763147056102753,0.07339658588171005,-0.3323576748371124,0.0024205734953284264,0.378788024187088,0.062299516052007675,-0.2058050036430359,-0.12190759181976318,-0.1866212785243988,-0.06369304656982422,-0.22778192162513733,-0.03187495842576027,0.12682601809501648,-0.1523435413837433,0.26197242736816406,0.289565771818161,-0.019165517762303352,-0.3598279058933258,0.24913685023784637,-0.09423951804637909,0.09895731508731842,-0.09655843675136566,0.08558724820613861,0.2922646403312683,0.07622707635164261,0.24632306396961212,-0.03867712616920471,0.24841679632663727,0.25064173340797424,-0.0897567868232727,0.4648633301258087,0.0923820286989212,-0.16702574491500854,-0.16890007257461548,-0.09400410205125809,-0.26285743713378906,0.38400357961654663,-0.009028089232742786,0.09777755290269852,-0.20051369071006775,0.1273718774318695,-0.3929439187049866,0.321448415517807,0.19592416286468506,-0.2568177580833435,-0.2332668900489807,0.04295703023672104,-0.33172836899757385,0.17035500705242157,-0.019087662920355797,0.0841648057103157,-0.29499754309654236,0.38720226287841797,0.03830510750412941,-0.011485404334962368,-0.2022707462310791,0.0035132821649312973,0.11300599575042725,-0.024459315463900566,-0.06450702250003815,0.02452942356467247,0.03218172490596771,0.2234935313463211,0.3090851604938507,-0.14454755187034607,-0.031933363527059555
Si,-0.0629391223192215,-0.11867135763168335,0.21799473464488983,0.0715852826833725,-0.09805451333522797,0.0618220753967762,0.517244279384613,-0.21590295433998108,0.10441137850284576,-0.18452362716197968,-0.01753450185060501,-0.38969555497169495,0.3198336660861969,-0.44403907656669617,0.1537955105304718,0.25051286816596985,0.16654004156589508,-0.14431563019752502,0.17035236954689026,0.2908739149570465,0.2152436375617981,-0.15531499683856964,0.08822149783372879,0.154940664768219,-0.03030315786600113,-0.10531757771968842,-0.038834404200315475,0.398226261138916,0.08876644819974899,-0.008735304698348045,-0.04434487223625183,-0.10605419427156448,-0.3403303623199463,0.3679018020629883,-0.27675989270210266,-0.037920571863651276,-0.07764293253421783,-0.16848279535770416,0.09514414519071579,-0.467794805765152,-0.02761891856789589,-0.07924779504537582,0.06902801245450974,-0.1654890775680542,0.012123445980250835,0.23432657122612,0.24731230735778809,0.07094249874353409,-0.4965461790561676,-0.043855220079422,-0.19596640765666962,0.23891788721084595,0.242665097117424,0.08576855063438416,-0.12013956904411316,0.4839392602443695,0.15277354419231415,-0.07739506661891937,-0.13908608257770538,-0.14001847803592682,0.13534799218177795,0.06384129077196121,-0.010682573541998863,0.2663767635822296,-0.11629383265972137,0.024768585339188576,-0.3858208954334259,-0.30402565002441406,-0.4350145161151886,0.05127785727381706,0.2855894863605499,0.24630235135555267,-0.093813456594944,0.1849980354309082,0.17403936386108398,0.3026883602142334,-0.27546682953834534,-0.6452118158340454,0.05878550931811333,-0.2889769673347473,-0.3099829852581024,-0.056425172835588455,0.15571202337741852,0.0024548969231545925,0.09686361253261566,-0.17725661396980286,0.09032418578863144,0.14589455723762512,0.7664007544517517,-0.038519855588674545,-0.28960222005844116,-0.23920655250549316,0.0813714936375618,0.029505286365747452,0.04712015017867088,0.45188575983047485,-0.157737135887146,-0.034700702875852585,-0.05741118639707565,0.1640240103006363,0.33757272362709045,0.54063880443573,-0.07938303053379059,0.21379223465919495,-0.05767737329006195,-0.01942480355501175,-0.008330847136676311,0.5132076144218445,0.2849913537502289,0.1278465986251831,0.016383426263928413,-0.10209609568119049,-0.668393611907959,0.23940642178058624,-0.13778692483901978,-0.06317999213933945,-0.1097371056675911,0.01781991310417652,-0.0018087360076606274,-0.3018742799758911,-0.017877498641610146,-0.6301460266113281,0.0005722925998270512,-0.3267173171043396,-0.02248016931116581,-0.3235512971878052,0.3975520730018616,0.0175663810223341,0.14183133840560913,0.04077175259590149,0.15737074613571167,0.14876987040042877,0.08401502668857574,0.23056508600711823,0.3576045334339142,0.0015341787366196513,-0.3107037842273712,-0.09324972331523895,0.2718392014503479,0.16824674606323242,-0.35025089979171753,0.03921204432845116,0.03144307807087898,-0.08124309033155441,-0.3952270448207855,0.22256897389888763,0.059537094086408615,-0.275667279958725,0.36051368713378906,0.28204652667045593,-0.025700731202960014,-0.38964152336120605,0.2314039170742035,-0.17402252554893494,-0.08810137212276459,-0.3290599584579468,0.18894033133983612,0.10892251878976822,0.07999098300933838,0.07696342468261719,-0.15761853754520416,0.2946469485759735,-0.09615550190210342,-0.07952132821083069,0.3262621760368347,0.18027064204216003,-0.14421908557415009,-0.0596010722219944,-0.08187296986579895,-0.28410962224006653,0.1437358856201172,-0.19118547439575195,-0.09299386292695999,-0.20474228262901306,0.10302484780550003,-0.6050492525100708,0.06631624698638916,0.36890432238578796,-0.2509719133377075,-0.28814229369163513,-0.09683659672737122,-0.23894353210926056,0.13365142047405243,-0.2060566246509552,0.04763752594590187,-0.3366997539997101,0.14153550565242767,0.17246395349502563,-0.12076960504055023,-0.07478909194469452,-0.259699285030365,-0.19513745605945587,-0.00873629841953516,0.0042060669511556625,0.21441000699996948,-0.1725737601518631,-0.052412595599889755,0.1974094808101654,-0.11597621440887451,-0.040868233889341354
P,-0.37410056591033936,0.08096692711114883,0.08056722581386566,-0.039511989802122116,-0.152116596698761,0.07321031391620636,0.6145725250244141,-0.0017836597980931401,-0.13030551373958588,-0.2390202134847641,0.09058976173400879,-0.21855232119560242,-0.027663644403219223,-0.333286315202713,0.09401609748601913,-0.04023786261677742,0.018566403537988663,0.3294747769832611,0.03121269680559635,0.640446662902832,0.03206431865692139,-0.09739390760660172,0.12969420850276947,0.18851697444915771,0.3214614987373352,-0.03494605794548988,-0.033488061279058456,0.39076706767082214,-0.1867738962173462,-0.19875185191631317,0.1550268530845642,-0.19739270210266113,-0.14738333225250244,-0.22573159635066986,0.32743749022483826,-0.30700573325157166,-0.01804329827427864,-0.07623384892940521,0.17682285606861115,-0.29764696955680847,0.21228784322738647,-0.14341457188129425,0.022008467465639114,-0.02277314104139805,-0.30150023102760315,0.12322565168142319,0.32689788937568665,-0.45268142223358154,-0.2892821133136749,0.2010917365550995,-0.12904410064220428,0.1257956475019455,0.22376090288162231,0.01676698960363865,0.10882574319839478,0.4041122794151306,0.4123919904232025,-0.16980643570423126,-0.006312905345112085,0.21473556756973267,0.33428171277046204,0.15476442873477936,0.18435335159301758,0.6052393317222595,-0.06471779197454453,0.11898773163557053,-0.24376992881298065,-0.14063102006912231,-0.2869418263435364,0.3079777956008911,0.5528194904327393,-0.07501500099897385,0.040861889719963074,0.13868418335914612,0.12888044118881226,0.190729558467865,-0.47498130798339844,-0.8796300292015076,-0.2561791241168976,-0.02898504212498665,0.07896599173545837,-0.35342729091644287,0.13209261000156403,-0.11878742277622223,-0.030149465426802635,-0.33178088068962097,0.39277535676956177,0.06604199856519699,0.6703862547874451,-0.44795456528663635,-0.290314257144928,0.051438674330711365,-0.2633146643638611,0.059372883290052414,0.014244514517486095,0.2119092345237732,-0.05285709723830223,0.3766482472419739,0.12827889621257782,0.10766446590423584,-0.31560754776000977,0.23079833388328552,-0.025726696476340294,-0.30518534779548645,0.015480519272387028,-0.14444085955619812,-0.10384783893823624,0.1507275402545929,-0.32419952750205994,-0.15280497074127197,-0.07336235046386719,0.46528932452201843,-0.2796323299407959,0.19333747029304504,-0.2791866362094879,0.161397784948349,0.07123146206140518,-0.016152100637555122,0.1843513548374176,-0.3117867708206177,-0.02658848464488983,-0.41412773728370667,0.20977374911308289,0.21239854395389557,0.13877443969249725,-0.005005641374737024,0.21491819620132446,-0.3628854751586914,-0.08957197517156601,0.20023693144321442,0.09856542199850082,0.29457753896713257,0.09387599676847458,0.4127429127693176,0.050740811973810196,0.027030235156416893,0.032915543764829636,0.12672483921051025,-0.013717667199671268,0.09656049311161041,-0.26944291591644287,-0.07320740818977356,-0.2272709459066391,-0.028473854064941406,-0.2760022282600403,0.24380049109458923,0.08949826657772064,-0.27348992228507996,0.35473108291625977,0.016438717022538185,0.07208392769098282,0.21060413122177124,-0.04314034804701805,-0.1551934778690338,-0.43728938698768616,-0.3122589886188507,-0.26805031299591064,0.18980559706687927,0.3226682245731354,0.12087877094745636,-0.0008351059514097869,0.5733296275138855,-0.5295929312705994,-0.1296200007200241,0.18765516579151154,0.25922590494155884,-0.1254327893257141,0.15627366304397583,-0.13495127856731415,-0.23371784389019012,0.0636160746216774,-0.047496333718299866,-0.04156183823943138,-0.04752299189567566,-0.29643547534942627,-0.23763816058635712,0.28412574529647827,0.03608463704586029,-0.05940994620323181,-0.6444277763366699,-0.186308816075325,-0.735695481300354,0.16161778569221497,-0.1681683212518692,0.05306406691670418,-0.4003244936466217,-0.1987665742635727,0.1368805468082428,-0.17159074544906616,0.11401761323213577,0.2702998220920563,0.0011902443366125226,-0.03016493283212185,-0.12828263640403748,-0.4446792006492615,0.08838146179914474,-0.03550729900598526,0.16810254752635956,-0.07948937267065048,-0.0008635197882540524
S,0.1732129156589508,-0.16069938242435455,0.15113002061843872,0.23573672771453857,-0.03492928668856621,0.19029368460178375,0.5363771319389343,0.3915850520133972,0.1423429548740387,-0.1637621521949768,-0.0687941163778305,-0.301773339509964,-0.05067646875977516,-0.34578439593315125,-0.046485260128974915,0.4105369746685028,0.09296967089176178,-0.1295882761478424,0.1264302134513855,0.27619192004203796,0.09833548963069916,-0.1797478348016739,0.02680080384016037,0.24404726922512054,-0.038910798728466034,0.07378368079662323,-0.2572934627532959,-0.16575677692890167,0.23212875425815582,-0.01807812787592411,0.03519446775317192,-0.06939224898815155,-0.3963923454284668,-0.09657019376754761,0.26557299494743347,0.02600775472819805,-0.2677163779735565,-0.30156397819519043,-0.08160743117332458,-0.30710074305534363,0.31383758783340454,-0.07714736461639404,-0.3112476170063019,0.022041689604520798,-0.3738335072994232,0.4851117730140686,0.3820687234401703,-0.1572253257036209,-0.2464158535003662,0.25379639863967896,-0.39774519205093384,0.24940790235996246,-0.006674370262771845,-0.057065390050411224,-0.21522235870361328,0.3232582211494446,0.3999381363391876,0.21623095870018005,-0.056244224309921265,-0.4383412301540375,0.6751696467399597,-0.018187081441283226,0.40932440757751465,0.47244688868522644,0.0607859343290329,0.04755276441574097,0.37335076928138733,0.17791031301021576,-0.09662477672100067,0.11960998177528381,0.5718263387680054,-0.23058994114398956,-0.3735368251800537,0.03085426427423954,-0.29128575325012207,0.2193594127893448,-0.5477589964866638,-0.2347417026758194,-0.3324865698814392,-0.09500893205404282,0.034026648849248886,-0.026688752695918083,-0.1487407088279724,-0.1709100902080536,0.12803706526756287,-0.29124370217323303,0.31042593717575073,0.32416653633117676,0.3742845356464386,-0.3082364797592163,0.2475215047597885,0.2562958002090454,-0.07911663502454758,0.14387185871601105,-0.19458875060081482,-0.06506960839033127,-0.3227994441986084,0.27610570192337036,0.07324991375207901,0.10685444623231888,-0.06741496920585632,0.11233896017074585,-0.016469120979309082,-0.30462735891342163,0.2221517562866211,-0.008679881691932678,-0.028713233768939972,0.12573929131031036,0.4080257713794708,-0.06554554402828217,-0.10297935456037521,0.05671980604529381,-0.6380143761634827,0.12869544327259064,0.02121446095407009,0.1888209581375122,-0.10585896670818329,-0.023182805627584457,0.005364041775465012,-0.29298892617225647,0.03998582810163498,-0.38497471809387207,0.13038937747478485,-0.22948218882083893,0.16630907356739044,0.1487441509962082,-0.07671301066875458,-0.3834822475910187,0.379125714302063,0.06283046305179596,-0.19534511864185333,0.14329040050506592,-0.1903616487979889,0.18668077886104584,-0.027863040566444397,-0.01925509423017502,0.2103138417005539,-0.013496240600943565,0.008566794916987419,-0.19627146422863007,0.0129087520763278,-0.16908280551433563,0.03025861456990242,0.020971229299902916,-0.17660559713840485,0.33511367440223694,0.10597534477710724,-0.699062168598175,-0.005388469435274601,0.14247755706310272,0.24514970183372498,0.19619262218475342,-0.1396917700767517,-0.36681893467903137,-0.32121217250823975,-0.08941789716482162,-0.19953587651252747,0.013175172731280327,-0.2311268299818039,0.1634642481803894,0.10707464814186096,0.6573059558868408,-0.10572006553411484,-0.20819434523582458,0.4715394377708435,0.02498721145093441,-0.06474024057388306,-0.023969881236553192,-0.228634774684906,-0.34641197323799133,0.09366059303283691,-0.05378175899386406,-0.12645256519317627,-0.42203494906425476,-0.09418807178735733,-0.266242653131485,-0.00038254508399404585,-0.19752298295497894,0.2808797061443329,-0.7221710085868835,-0.046872030943632126,-0.31405478715896606,0.2553943395614624,-0.0850655660033226,0.08880502730607986,0.2108970582485199,-0.20141763985157013,0.04308260604739189,0.14508689939975739,-0.09677226841449738,0.23915469646453857,0.05668492987751961,0.05505020543932915,-0.38449376821517944,-0.009878600016236305,0.025070805102586746,-0.02344692125916481,0.2973095774650574,0.17992886900901794,0.17446590960025787
Cl,-0.09638690203428268,-0.10720404237508774,0.1354365050792694,0.39777064323425293,-0.16975370049476624,0.006748334504663944,0.5548002123832703,0.131858229637146,0.2234886735677719,-0.42459389567375183,-0.34859538078308105,0.32793933153152466,-0.1842438131570816,-0.5252296924591064,-0.054664839059114456,0.30710238218307495,-0.6843702793121338,0.3577525317668915,0.3089648187160492,0.4245396852493286,0.29300457239151,-0.2259480059146881,-0.32649388909339905,-0.08750072866678238,-0.11414610594511032,0.05246178060770035,-0.34557071328163147,0.34689563512802124,0.1150689423084259,-0.2229788601398468,-0.33938664197921753,-0.102370485663414,-0.3917693793773651,-0.013607100583612919,-0.06144064664840698,-0.31788671016693115,0.050723154097795486,-0.3433828055858612,-0.04653512313961983,-0.30261367559432983,0.607624351978302,-0.28195545077323914,0.14366412162780762,-0.5118322372436523,-0.1314009428024292,0.4389166235923767,0.3351179361343384,0.42850232124328613,-0.26785337924957275,0.48420318961143494,-0.38335785269737244,-0.19739262759685516,0.36753568053245544,0.016128793358802795,0.42092642188072205,1.0140563249588013,-0.02994423359632492,-0.5539438724517822,-0.4237210154533386,-0.6308954358100891,-0.20839957892894745,0.468138724565506,0.3372935652732849,0.25368863344192505,0.11990050226449966,0.22958791255950928,0.22136354446411133,0.2975538372993469,-0.4663383960723877,0.19589130580425262,0.3686991035938263,0.0611116886138916,-0.3435380458831787,0.08619650453329086,-0.1926335245370865,0.04395081847906113,-0.5539214611053467,0.3156052231788635,0.056300532072782516,-0.360467791557312,-0.1036645844578743,0.4240497052669525,0.27677473425865173,-0.31474441289901733,-0.22608068585395813,0.12885798513889313,0.0012422035215422511,0.6551117897033691,-0.07210037112236023,0.3999333381652832,0.039387017488479614,0.21293577551841736,-0.3903515040874481,-0.15974782407283783,-0.08262965083122253,0.4175741970539093,-0.422171413898468,0.003280152101069689,0.07132818549871445,0.16823239624500275,0.12077978998422623,0.24121323227882385,0.04495988413691521,0.12621855735778809,0.11476109176874161,0.0006070108502171934,-0.2196570634841919,0.4870603680610657,0.4486687481403351,0.2759619653224945,0.0723518580198288,0.6469026207923889,-0.04276427999138832,-0.12937381863594055,0.30804479122161865,0.672324001789093,-0.11065350472927094,0.20005977153778076,0.05813586711883545,0.13049642741680145,0.07878798246383667,-0.4224061667919159,-0.2643376588821411,-0.015419874340295792,0.379425972700119,-0.2575547695159912,-0.09268143773078918,-0.29072195291519165,0.10452204197645187,0.003092201892286539,0.15334416925907135,0.25965046882629395,-0.041686348617076874,0.2121914178133011,0.111992746591568,-0.2725045680999756,0.04893625155091286,0.0924423411488533,-0.001539695425890386,0.3596596121788025,-0.32154014706611633,-0.011846152134239674,0.2437647581100464,0.3169730305671692,-0.1734074503183365,0.28364625573158264,0.06781066209077835,0.0348631888628006,0.28802689909935,0.07873164117336273,0.23868773877620697,0.06269963085651398,0.18785518407821655,-0.11275708675384521,-0.2678360044956207,0.021789630874991417,-0.17922240495681763,0.393445760011673,-0.06643309444189072,0.40593042969703674,0.15712685883045197,0.5977013111114502,0.0740760937333107,-0.1560862511396408,0.6096145510673523,0.13631388545036316,0.06813754141330719,-0.2729867696762085,-0.20405009388923645,-0.34089720249176025,-0.07057314366102219,0.2004469484090805,-0.3549039959907532,-0.17861910164356232,-0.02007674053311348,-0.056181762367486954,0.23236384987831116,0.2887220084667206,0.07906017452478409,-0.3519149720668793,-0.4353220760822296,-0.5167878866195679,0.5087988972663879,0.357800155878067,0.14299355447292328,0.29912468791007996,-0.16382233798503876,0.011001893319189548,0.045789968222379684,0.261223167181015,0.26356086134910583,-0.12850108742713928,-0.14021813869476318,-0.4468824863433838,0.12878204882144928,-0.040602974593639374,0.1003049984574318,0.21861852705478668,-0.3231552839279175,0.001806940883398056
Ar,-0.021599387750029564,-0.2943876385688782,-0.19551196694374084,0.33242395520210266,-0.008006392978131771,-0.18020941317081451,0.7066981196403503,-0.28861910104751587,0.1080465093255043,-0.07214149087667465,0.2899063229560852,-0.043260544538497925,0.3371480107307434,-0.3505190908908844,-0.13271407783031464,0.44352221488952637,0.0002540449204389006,0.18029722571372986,0.2599262595176697,0.8239136338233948,0.08270815014839172,-0.18037989735603333,0.03615754842758179,-0.2460714727640152,0.053035251796245575,0.008000541478395462,0.13664449751377106,-0.15247376263141632,0.556792140007019,0.22875262796878815,-0.2552553415298462,0.13602682948112488,0.23194560408592224,0.03112270124256611,-0.21964502334594727,-0.05743635818362236,-0.17402800917625427,0.17656564712524414,0.004244488198310137,-0.3406994938850403,0.35683199763298035,-0.10278519243001938,0.5129988789558411,0.11338497698307037,0.11158677190542221,0.7044355273246765,0.13891056180000305,-0.21375672519207,-0.28846433758735657,0.7481574416160583,-0.20322974026203156,-0.3025176525115967,0.44588303565979004,0.18507042527198792,0.2811843752861023,0.47673672437667847,0.09515684098005295,-0.3399011194705963,0.18944108486175537,-0.422145277261734,-0.33058398962020874,0.42729103565216064,0.3963721990585327,0.4229729473590851,0.02718023955821991,0.5354956388473511,-0.26308131217956543,0.016934746876358986,-0.486606240272522,-0.18167631328105927,0.26414233446121216,0.02140364609658718,-0.19179590046405792,0.27542755007743835,0.07009401172399521,-0.11242058128118515,-0.5063887238502502,-0.06960614770650864,0.470859557390213,0.20650582015514374,0.011947395280003548,-0.2116331309080124,0.1611471027135849,-0.14148667454719543,-0.22908982634544373,0.043171290308237076,0.15922825038433075,0.2518736720085144,-0.03178218752145767,0.037286385893821716,-0.14603343605995178,0.034868232905864716,0.036827750504016876,-0.007825406268239021,-0.33049508929252625,-0.1195845976471901,-0.2851511538028717,0.11235971003770828,0.1272883415222168,-0.09202064573764801,0.027684297412633896,0.19356957077980042,0.12991629540920258,-0.21207430958747864,-0.024658681824803352,0.10212811082601547,-0.041080135852098465,0.21040695905685425,0.5819788575172424,0.5702032446861267,-0.11268300563097,0.17706511914730072,-0.07517511397600174,0.009377057664096355,-0.1611260175704956,0.6263046860694885,0.3653666079044342,0.0023696909192949533,-0.11260803043842316,-0.16023236513137817,-0.17371386289596558,-0.40044456720352173,-0.3474182188510895,0.45045873522758484,0.14715859293937683,-0.48151156306266785,0.17405138909816742,-0.8469933867454529,0.0018485210603103042,0.18141092360019684,-0.05783361196517944,0.022266702726483345,-0.018160317093133926,-0.07188751548528671,0.07915137708187103,-0.4824576675891876,-0.5093675255775452,0.28197845816612244,0.017803257331252098,-0.06825514137744904,-0.08948694169521332,0.17638248205184937,-0.15107578039169312,-0.10847045481204987,-0.2713755965232849,-0.5653092861175537,0.18995143473148346,-0.11216158419847488,0.12254133075475693,0.01642521470785141,0.12362541258335114,-0.2570782005786896,0.42218101024627686,-0.3410096764564514,-0.08304237574338913,-0.09942694008350372,-0.17972609400749207,0.22984129190444946,0.026277722790837288,0.2237730771303177,0.0189064908772707,0.5950113534927368,0.15600812435150146,0.13466393947601318,0.5257358551025391,-0.11045899987220764,-0.26247045397758484,-0.060313209891319275,-0.27840015292167664,-0.2792454957962036,0.1187327429652214,-0.1838095337152481,0.07755721360445023,-0.12407389283180237,0.112147256731987,-0.299150675535202,-0.366504430770874,0.588165283203125,0.3370717465877533,-0.05180545523762703,-0.6039603352546692,-0.0628540888428688,0.2461400330066681,-0.3496318757534027,0.02498692274093628,0.2650037407875061,0.09715618193149567,-0.24431034922599792,-0.017958717420697212,-0.0296643003821373,0.2139289826154709,-0.40582868456840515,-0.082840196788311,-0.46270185708999634,0.28731903433799744,0.044469740241765976,-0.22466984391212463,0.0481465719640255,-0.30273541808128357,0.030243124812841415
K,0.1764133870601654,0.14635564386844635,0.1080179512500763,0.35954785346984863,-0.01759490743279457,0.2849375009536743,0.5190574526786804,0.3096955418586731,-0.03601490706205368,0.1565779596567154,0.3082885146141052,-0.11601002514362335,0.21057872474193573,-0.39783981442451477,-0.6016203761100769,0.10804202407598495,0.11132767051458359,0.002901156432926655,-0.12748128175735474,0.5479815006256104,0.0804358646273613,-0.31360670924186707,-0.33579275012016296,0.0835728868842125,0.025416644290089607,0.3159169852733612,-0.07457581907510757,0.24742242693901062,0.08195863664150238,-0.12072346359491348,-0.25400546193122864,0.1806679368019104,-0.28257447481155396,-0.17575784027576447,-0.0013925209641456604,0.013895043171942234,0.010388840921223164,-0.028827961534261703,-0.05578642338514328,0.17635270953178406,0.19282928109169006,-0.29115068912506104,-0.19240278005599976,0.11908792704343796,-0.2577829658985138,0.06729469448328018,0.17165778577327728,-0.12524770200252533,-0.36115917563438416,0.31617286801338196,-0.11050527542829514,0.12547509372234344,0.3833189904689789,-0.15418748557567596,-0.0014058295637369156,0.32189908623695374,0.5691095590591431,-0.12972263991832733,0.35701870918273926,-0.2634924054145813,0.3190303444862366,0.04191098362207413,0.15304343402385712,0.16259820759296417,-0.14972937107086182,0.42612963914871216,-0.04372157156467438,0.1315087378025055,-0.36018213629722595,-0.2393682599067688,0.3316234350204468,0.10322308540344238,-0.41086700558662415,0.25640666484832764,0.10608243942260742,-0.06049073487520218,-0.3269985020160675,-0.6121596097946167,-0.01205821055918932,-0.15696533024311066,0.03754524141550064,0.061666615307331085,-0.12796710431575775,0.15512241423130035,-0.20993666350841522,-0.1468747854232788,-0.030731117352843285,0.040751490741968155,0.3768444359302521,-0.2282390147447586,-0.025955256074666977,0.18760821223258972,0.1041422188282013,0.04986106976866722,-0.02524496056139469,-0.06392565369606018,-0.07651316374540329,0.37591812014579773,0.23606011271476746,0.394286185503006,0.1400841474533081,0.2344280183315277,0.21260778605937958,-0.014752834104001522,0.07483484596014023,-0.042971838265657425,-0.3673921525478363,0.11593889445066452,-0.024430884048342705,0.45406410098075867,-0.08411844819784164,0.08701703697443008,-0.13751313090324402,0.21211910247802734,-0.04729221388697624,0.008802063763141632,0.05541573464870453,0.2509128749370575,-0.1487410068511963,-0.6074629426002502,0.253560870885849,-0.23821793496608734,0.02230272814631462,-0.22856451570987701,-0.07273054122924805,0.11703306436538696,0.3421630561351776,-0.023627884685993195,0.2193256914615631,0.1529851257801056,-0.038415636867284775,-0.31646963953971863,0.30758869647979736,0.19280532002449036,-0.229099839925766,-0.10590256005525589,0.13369949162006378,0.1449340581893921,0.18041618168354034,0.051994625478982925,-0.19824761152267456,-0.05157977715134621,-0.02849147841334343,-0.05556013435125351,-0.22037222981452942,-0.25583311915397644,0.2979459762573242,-0.35808518528938293,0.12613333761692047,0.20303891599178314,0.1981581151485443,-0.0712568461894989,0.21303316950798035,0.06599581986665726,-0.25723978877067566,-0.15973597764968872,-0.20076219737529755,0.10610539466142654,-0.18363772332668304,0.010306637734174728,0.09555748105049133,0.021801386028528214,-0.06946363300085068,-0.00985606200993061,0.10843083262443542,0.3404282033443451,-0.10618443042039871,0.15889644622802734,-0.18341605365276337,-0.08501394838094711,-0.25119873881340027,0.219008669257164,0.0928967297077179,-0.24281837046146393,0.22878026962280273,0.07276514917612076,0.4249471426010132,-0.07142066210508347,0.2223639339208603,-0.38217419385910034,-0.21296654641628265,-0.1045708954334259,0.15051394701004028,0.05502336472272873,-0.13431793451309204,-0.38166046142578125,0.1294632852077484,-0.2572889029979706,-0.06198321282863617,-0.2422676533460617,0.27820271253585815,-0.28282982110977173,-0.20080909132957458,0.2037130892276764,0.03567754104733467,-0.09668003767728806,0.023456962779164314,-0.058643970638513565,-0.10939276218414307,0.07147879898548126
Ca,-0.1977241337299347,0.245716854929924,0.06286246329545975,0.06321316957473755,-0.2708587646484375,-0.10072824358940125,0.6270424127578735,-0.13478223979473114,-0.19090807437896729,-0.31819137930870056,-0.020840415731072426,-0.15062394738197327,-0.05795043706893921,-0.26813697814941406,-0.15681084990501404,0.20049265027046204,-0.08918990939855576,0.34866708517074585,0.24982182681560516,0.4292120039463043,-0.27670368552207947,-0.40201058983802795,-0.37234193086624146,0.21398501098155975,0.20101933181285858,0.010297652333974838,-0.22076508402824402,0.27248725295066833,0.21539545059204102,-0.08799947053194046,-0.23465140163898468,0.2101980745792389,-0.20135153830051422,0.2634848654270172,0.19824333488941193,-0.19363951683044434,-0.2078702449798584,-0.14278751611709595,0.4288088381290436,-0.23358529806137085,0.8347482085227966,-0.15547345578670502,0.09276782721281052,-0.275279700756073,-0.5281020402908325,-0.09715957939624786,0.5187169909477234,-0.02869466505944729,-0.5858885645866394,0.1323752999305725,-0.048808030784130096,-0.1124180257320404,-0.12946166098117828,-0.021248526871204376,0.12749098241329193,0.5904008150100708,0.44999217987060547,-0.3320940434932709,-0.31837937235832214,-0.1771910935640335,0.44840630888938904,0.4191359579563141,0.12172417342662811,-0.05001917853951454,-0.1134047657251358,0.4481336772441864,-0.1622811257839203,-0.5360141396522522,-0.32990655303001404,-0.07119503617286682,0.33986547589302063,0.1815611869096756,-0.4927634298801422,0.12551991641521454,-0.038449376821517944,0.011055001989006996,-0.5240124464035034,-0.301530659198761,-0.17411111295223236,-0.23837606608867645,0.11727739870548248,-0.07896924763917923,-0.009494026191532612,-0.29050546884536743,0.26641613245010376,0.27240636944770813,0.3880680799484253,0.29991161823272705,0.5864435434341431,-0.4905373454093933,-0.19906972348690033,0.004984803032130003,0.24303528666496277,-0.04312543570995331,0.017766248434782028,0.09041254967451096,0.029315439984202385,0.03937201574444771,0.007474305108189583,0.2781218886375427,-0.08306656032800674,0.5278565883636475,-0.021935025230050087,0.46512535214424133,0.3742936849594116,-0.11567195504903793,-0.023125912994146347,0.27893805503845215,0.4193166196346283,-0.10170868039131165,-0.21663352847099304,0.36345481872558594,-0.4379250109195709,0.0031537923496216536,-0.26088228821754456,0.21564503014087677,0.42320895195007324,0.06863648444414139,0.3629084825515747,-0.2941717505455017,-0.36322253942489624,-0.2975413501262665,0.21483230590820312,0.44903576374053955,0.1312914788722992,0.20179483294487,0.25287020206451416,-0.1537410467863083,-0.17871709167957306,0.09328077733516693,0.7831534147262573,0.2896410822868347,0.22302116453647614,0.20443986356258392,-0.101228728890419,-0.08987659960985184,0.03672582656145096,0.09490298479795456,0.14823640882968903,0.3781396448612213,-0.27146705985069275,-0.09504621475934982,-0.07307282090187073,0.27244994044303894,-0.05216323211789131,0.3053915798664093,0.07948116958141327,-0.25866544246673584,0.35428211092948914,-0.4435046315193176,0.27608785033226013,-0.29833176732063293,0.04067527502775192,-0.2043887972831726,-0.3332885801792145,0.18416385352611542,-0.2952306270599365,0.28760379552841187,0.021775150671601295,0.36005499958992004,0.05924606695771217,0.23141129314899445,-0.3095256984233856,0.048994891345500946,0.14597199857234955,0.4890156388282776,-0.29625388979911804,-0.10693627595901489,0.18137291073799133,-0.49346137046813965,-0.08556430786848068,-0.21795424818992615,0.044848520308732986,0.02983308583498001,0.025411829352378845,-0.37012696266174316,0.5005027055740356,0.5695658922195435,-0.3652980327606201,-0.10619806498289108,0.056584931910037994,-0.6172972321510315,0.3556743562221527,-0.11259546875953674,0.34726405143737793,-0.19727066159248352,0.024755770340561867,-0.09941862523555756,-0.27774474024772644,0.08724728971719742,0.3090687096118927,0.24245856702327728,-0.19549548625946045,-0.24706479907035828,0.06042104959487915,-0.13108617067337036,0.24060243368148804,0.6305989027023315,-0.3315923511981964,0.05155997350811958
Sc,-0.2622012197971344,0.012907059863209724,0.34541139006614685,0.029010606929659843,-0.5946566462516785,0.22472260892391205,0.6332711577415466,0.024854639545083046,-0.21055461466312408,0.004824954550713301,0.26447826623916626,-0.08509185165166855,-0.27482718229293823,-0.5459522604942322,-0.05212024971842766,-0.04491268843412399,-0.2392025887966156,-0.07087919861078262,0.14535528421401978,0.5895659923553467,-0.1291673481464386,-0.3582836389541626,-0.14865270256996155,0.3069746792316437,-0.16527879238128662,-0.46350520849227905,0.14956402778625488,0.32426169514656067,0.06226826459169388,-0.1828867346048355,-0.0164424367249012,-0.14937356114387512,0.10633551329374313,-0.06364813446998596,0.150974839925766,0.04501774534583092,0.2978011965751648,0.012311265803873539,0.28247204422950745,-0.19456589221954346,0.7223407626152039,-0.25927260518074036,0.30397510528564453,-0.2313767671585083,-0.4395672380924225,0.38379666209220886,0.1737787127494812,-0.17240044474601746,-0.7484773993492126,0.04999307170510292,0.2714625298976898,-0.35724905133247375,-0.3819108009338379,-0.2844397723674774,0.05583324283361435,0.6665907502174377,0.3345727324485779,-0.26157739758491516,-0.09812991321086884,-0.057335011661052704,0.03776738792657852,-0.12808847427368164,-0.23656754195690155,0.1278744488954544,-0.521431028842926,0.30619463324546814,-0.02860158681869507,-0.6173786520957947,-0.5263824462890625,0.21471168100833893,0.3484798073768616,0.13048972189426422,-0.32702335715293884,0.26672205328941345,0.19759346544742584,-0.31982263922691345,-0.046554747968912125,-0.48513245582580566,0.48843345046043396,-0.32834988832473755,0.3337051570415497,0.24914436042308807,0.3633907437324524,0.10222513228654861,0.08988536894321442,0.33289405703544617,0.1596681773662567,0.23475724458694458,0.46709132194519043,-0.31394532322883606,0.053240448236465454,0.400309294462204,0.3584376871585846,-0.14480115473270416,-0.3981643319129944,0.5203004479408264,0.250151127576828,0.07280150800943375,0.18223629891872406,0.0373181477189064,-0.3678727149963379,0.6390313506126404,-0.28044894337654114,0.4210008680820465,-0.006755060516297817,-0.03769615665078163,0.05128218233585358,0.7680903673171997,0.1439814269542694,0.1896776556968689,-0.16056093573570251,0.13624350726604462,-0.48518168926239014,0.4003000855445862,-0.15172132849693298,0.3912816345691681,0.1466475874185562,-0.2784319221973419,0.21403545141220093,-0.3178001940250397,-0.5014147162437439,-0.5216919183731079,0.21563415229320526,-0.447601854801178,-0.15332533419132233,0.5118788480758667,-0.044129401445388794,-0.5565706491470337,0.1227174922823906,0.030695363879203796,0.4787167012691498,0.1427127867937088,0.15309181809425354,0.14011318981647491,-0.16800300776958466,-0.31948310136795044,0.005033547058701515,0.03166649863123894,0.21084094047546387,-0.5118151903152466,-0.2811758816242218,0.057294812053442,-0.4556904435157776,0.033010080456733704,-0.06954868137836456,-0.40165919065475464,-0.07250604778528214,-0.034846123307943344,0.062075357884168625,0.2517857551574707,0.29297712445259094,-0.5201466083526611,0.3352435231208801,-0.0521063432097435,0.10528994351625443,0.007606251165270805,-0.4336000680923462,0.8559361696243286,0.04213205352425575,0.4321781098842621,0.12034211307764053,0.4880610704421997,0.0034989144187420607,-0.02486662194132805,0.4054426848888397,-0.10507838428020477,-0.15163244307041168,-0.19879014790058136,0.20279178023338318,-0.36110055446624756,-0.1280870884656906,0.153067484498024,0.3344687819480896,0.186489999294281,0.04260779917240143,-0.6339545249938965,0.34652289748191833,0.7036351561546326,-0.036975231021642685,0.05504374951124191,0.031204093247652054,-0.2863493859767914,0.30227985978126526,-0.02971462719142437,-0.01957610249519348,-0.1252409964799881,0.18770866096019745,-0.19271452724933624,-0.21937334537506104,0.1639496386051178,-0.16227373480796814,0.2640394866466522,-0.39288926124572754,-0.5630411505699158,0.04581671580672264,0.028456030413508415,0.049373552203178406,0.4549315869808197,0.11553727835416794,0.14766623079776764
Ti,-0.125702366232872,-0.23595145344734192,-0.038294848054647446,-0.45275747776031494,-0.16499797999858856,0.2779444456100464,0.6169833540916443,0.1540151834487915,-0.035349905490875244,-0.07831147313117981,0.29520195722579956,-0.10363084822893143,0.07275638729333878,-0.4435789883136749,0.1563248336315155,0.5996667146682739,0.1136687770485878,-0.21523597836494446,0.09491227567195892,0.4063476324081421,-0.10005498677492142,-0.11968158930540085,-0.13943761587142944,0.2649706304073334,-0.004274915438145399,-0.18554897606372833,0.06576526165008545,0.4107914865016937,-0.05987302213907242,-0.14163687825202942,0.05737124755978584,-0.016696259379386902,0.031740184873342514,-0.01260460913181305,0.14903739094734192,-0.2261071652173996,0.16051414608955383,-0.2458035796880722,-0.030538393184542656,-0.42732784152030945,0.30897626280784607,0.029171090573072433,0.20822003483772278,-0.36169445514678955,0.013111055828630924,0.30702754855155945,0.3540402352809906,0.02824326418340206,-0.17935746908187866,0.2783180773258209,0.27008718252182007,0.01714135892689228,0.40198561549186707,0.10940561443567276,0.04984216019511223,0.7151206731796265,0.32776638865470886,-0.27569541335105896,-0.1697492152452469,-0.07482073456048965,0.09653052687644958,0.13343501091003418,-0.0615643709897995,-0.10473228991031647,-0.3729657232761383,0.13189391791820526,-0.6316728591918945,-0.31129390001296997,-0.012003741227090359,0.23185747861862183,0.3688061237335205,0.01732487976551056,-0.3698205351829529,0.17831693589687347,0.14697369933128357,0.12953200936317444,-0.2408495843410492,-0.5783082246780396,-0.07751763612031937,-0.32429781556129456,0.013953345827758312,0.2908536493778229,0.28426414728164673,0.0413978286087513,0.06815611571073532,0.07693394273519516,-0.11622542142868042,-0.030449749901890755,0.5997099280357361,-0.10336615145206451,-0.08180063217878342,-0.14442817866802216,0.29050344228744507,-0.13841116428375244,-0.32910510897636414,0.18461525440216064,-0.20645268261432648,0.11248256266117096,0.1408909112215042,0.22978822886943817,-0.09735587984323502,0.3324602544307709,-0.019921500235795975,0.3083830177783966,-0.5362750291824341,0.06709326058626175,-0.17016643285751343,0.3729873299598694,0.2559434175491333,0.1814289093017578,0.12318751215934753,0.10426927357912064,-0.6121433973312378,0.10606463253498077,-0.4424322843551636,0.03622577339410782,0.057594794780015945,-0.3550257086753845,0.1821887046098709,-0.33781564235687256,-0.2421637773513794,-0.31859472393989563,0.2530211806297302,-0.1676962524652481,-0.17143726348876953,0.20478373765945435,0.2847701609134674,-0.656218409538269,0.14202958345413208,0.4576171934604645,0.0922643393278122,-0.04960775002837181,0.0021599617321044207,0.19719098508358002,0.0704529732465744,-0.1471172273159027,-0.3244343101978302,0.0024351351894438267,0.5040364861488342,0.202280193567276,-0.23363326489925385,-0.13320448994636536,-0.20072107017040253,-0.02073635347187519,-0.05655714124441147,0.030250322073698044,0.20841476321220398,-0.31742095947265625,-0.15841366350650787,0.08606977760791779,-0.142083540558815,-0.3035441040992737,0.22842863202095032,-0.1605389565229416,0.1832505464553833,-0.039657291024923325,0.16830429434776306,0.3223945200443268,0.3045627176761627,0.16620609164237976,-0.07239511609077454,0.12442347407341003,0.18759651482105255,0.10192276537418365,-0.017594339326024055,0.337217777967453,-0.09870175272226334,-0.37588831782341003,-0.16748319566249847,-0.3595459759235382,0.35617414116859436,0.028177684172987938,0.039609864354133606,-0.13787642121315002,0.2993104159832001,-0.3919789791107178,0.22992083430290222,0.20733238756656647,-0.44365987181663513,-0.1371774822473526,-0.18276043236255646,-0.3916873335838318,0.22807924449443817,-0.16290150582790375,-0.048637595027685165,-0.07912401109933853,0.16594111919403076,-0.0593247190117836,0.2555730938911438,-0.1119195818901062,0.0719844400882721,0.22306156158447266,-0.1910194754600525,-0.17008857429027557,0.3073026239871979,-0.06204286962747574,0.11114975064992905,0.29943612217903137,-0.18192201852798462,0.14936169981956482
V,0.20485791563987732,-0.005636167712509632,0.0102141834795475,-0.0763629600405693,-0.2862527370452881,0.20130345225334167,0.8776889443397522,0.050445929169654846,0.3218543529510498,-0.17988234758377075,0.14336010813713074,-0.21165814995765686,-0.34746482968330383,-0.45692455768585205,-0.1335921734571457,0.3831489086151123,-0.05251578614115715,-0.13276337087154388,-0.15322746336460114,0.6950649619102478,0.04963371157646179,-0.017910616472363472,7.198923412943259e-05,0.19749166071414948,0.08800601959228516,0.1831788569688797,0.22499005496501923,0.06039540469646454,-0.19641968607902527,-0.26749172806739807,0.03062540479004383,0.16322660446166992,-0.4060782790184021,-0.37282809615135193,0.35533908009529114,-0.2356724590063095,0.34288138151168823,-0.44027701020240784,0.07070443779230118,-0.20919117331504822,-0.0189235620200634,-0.014054365456104279,0.18247421085834503,0.12047109752893448,-0.3263009786605835,0.3764978051185608,-0.025667045265436172,-0.1471373289823532,-0.32006075978279114,0.3365402817726135,-0.07868898659944534,0.4181223511695862,0.09474416077136993,0.23090557754039764,0.06382235884666443,0.6466240286827087,0.2259032279253006,0.12998245656490326,0.2166927456855774,-0.336990088224411,0.11296297609806061,0.22083278000354767,-0.11650046706199646,0.30151352286338806,-0.12639811635017395,0.11082383990287781,-0.415341854095459,-0.06338446587324142,-0.07422377914190292,0.3075789511203766,0.5603234767913818,-0.001473654410801828,-0.18095242977142334,0.13744723796844482,0.21768739819526672,0.12099763751029968,-0.012659982778131962,-0.7133755087852478,-0.03678195923566818,0.0018866835162043571,-0.15080684423446655,0.6470266580581665,-0.18115752935409546,-0.020501762628555298,-0.21540270745754242,-0.5215578079223633,-0.14239440858364105,0.1376408189535141,0.4265998899936676,-0.20258034765720367,-0.3578115403652191,0.29060035943984985,-0.012787560001015663,-0.18726764619350433,-0.10164716094732285,-0.08516618609428406,0.1319948434829712,0.14375972747802734,0.011606881394982338,0.323419988155365,-0.011691080406308174,-0.06421997398138046,-0.403744101524353,0.1612168401479721,-0.26570945978164673,0.06818743050098419,-0.28733786940574646,0.05867871642112732,0.13807331025600433,0.059358276426792145,-0.01003374345600605,0.21350625157356262,-0.36108124256134033,0.26735004782676697,-0.2365928441286087,0.03771099075675011,-0.09765558689832687,-0.1283496618270874,0.2899322211742401,-0.24428880214691162,-0.038951411843299866,0.030555713921785355,0.09060461819171906,-0.1935954988002777,-0.4811107814311981,0.31508660316467285,0.13355009257793427,-0.0699603408575058,-0.0706482008099556,0.2755155861377716,-0.02352275513112545,0.12194326519966125,-0.10663658380508423,0.23017306625843048,-0.12580876052379608,-0.28208327293395996,-0.16936536133289337,-0.17044703662395477,0.23593255877494812,-0.04333234950900078,-0.014677313156425953,-0.12270132452249527,-0.19890005886554718,-0.02605046145617962,-0.08013410866260529,0.039664387702941895,-0.024259895086288452,-0.24515798687934875,-0.1743905246257782,0.38897672295570374,0.2309698462486267,0.10667874664068222,0.007802947424352169,-0.11035462468862534,-0.2820429503917694,-0.09873213618993759,-0.023282842710614204,0.2978275716304779,0.1521678864955902,0.1873137652873993,-0.14069388806819916,0.8173901438713074,0.069725900888443,-0.009069448336958885,-0.03230665251612663,0.23436801135540009,0.004977172706276178,-0.40022191405296326,-0.355441153049469,0.194443941116333,-0.0788104236125946,0.11827218532562256,-0.5405220985412598,-0.0894279032945633,0.06798635423183441,-0.19312088191509247,0.33454349637031555,0.06520204991102219,-0.011762015521526337,-0.5191568732261658,-0.27825236320495605,0.3778725862503052,0.05993514508008957,0.06612198799848557,-0.02987230196595192,-0.04631424322724342,0.1968797743320465,0.27612194418907166,0.04906454309821129,0.10228216648101807,-0.08033166825771332,-0.40614521503448486,-0.054822977632284164,-0.2705266773700714,-0.08502373844385147,0.1120724231004715,0.07745374739170074,0.012626146897673607,0.35739055275917053,0.36241310834884644
Cr,-0.28517022728919983,-0.03997614234685898,0.056319937109947205,0.12539593875408173,-0.4475504457950592,-0.07083287835121155,0.6837973594665527,0.13547277450561523,-0.0826418399810791,-0.3399674892425537,0.36250507831573486,0.3240622282028198,-0.004549331497400999,-0.6093199849128723,-0.1752309501171112,0.29522863030433655,0.06172475963830948,0.0217391736805439,0.26923254132270813,0.30416929721832275,0.2578680217266083,-0.04976195842027664,-0.13040173053741455,0.32946449518203735,-0.6079089641571045,-0.2474556416273117,-0.018587155267596245,0.1975589394569397,0.11591628193855286,-0.15355679392814636,0.3156379759311676,-0.04603181034326553,0.07316587120294571,-0.014844928868114948,0.2367708832025528,-0.08217716962099075,0.1381147801876068,0.05129706487059593,0.4372197985649109,-0.5380584001541138,0.2556653916835785,-0.22510895133018494,-0.20727252960205078,-0.5021374821662903,-0.23155736923217773,0.15572009980678558,0.3406071066856384,-0.11551573872566223,-0.2804572284221649,0.5550087690353394,0.44525447487831116,0.06448458135128021,0.13019247353076935,-0.07695478200912476,0.0031288741156458855,0.6728232502937317,0.3064582645893097,-0.017563024535775185,-0.17317187786102295,-0.13604708015918732,-0.08457433432340622,0.02817397192120552,0.06467849016189575,-0.04415793716907501,-0.25837013125419617,0.01768752560019493,-0.0727493166923523,-0.5387665033340454,-0.33807864785194397,0.22260600328445435,0.5701099634170532,0.16151918470859528,-0.18666905164718628,0.09172704815864563,0.10881173610687256,0.05620889365673065,-0.20929336547851562,-0.4032537043094635,-0.23370636999607086,-0.17210474610328674,0.0749993622303009,0.20394964516162872,0.6267446279525757,0.03173796460032463,0.16829466819763184,-0.17250485718250275,-0.08560402691364288,0.12494144588708878,0.3139472007751465,0.06717950850725174,0.1616869419813156,0.16045910120010376,0.35528919100761414,-0.2075469195842743,-0.3344420790672302,0.3553638458251953,-0.43423017859458923,0.5455384254455566,0.44889259338378906,0.21654093265533447,0.2909064292907715,0.0688149482011795,-0.3160310983657837,0.26973333954811096,0.0031304785516113043,-0.17366057634353638,0.09041652083396912,0.20567183196544647,0.14677667617797852,0.1692592054605484,0.19288545846939087,-0.0057336739264428616,-0.6255203485488892,0.15275339782238007,-0.20084378123283386,0.2429678589105606,0.4894125163555145,-0.053565625101327896,0.18006625771522522,-0.546923041343689,-0.4434770941734314,-0.37267521023750305,0.01393636129796505,-0.3149912655353546,-0.10099226981401443,0.24446314573287964,0.1616715043783188,-0.27084654569625854,0.1804259568452835,0.48198407888412476,0.22978360950946808,0.09689592570066452,0.005226908251643181,-0.02782796137034893,-0.14948530495166779,-0.07465777546167374,-0.03190971538424492,0.026009542867541313,0.4326421916484833,-0.24236387014389038,-0.4341832101345062,0.01634114421904087,-0.0684543326497078,0.34722983837127686,0.20998066663742065,-0.16373619437217712,-0.027996083721518517,0.018172141164541245,-0.05656801536679268,0.3243729770183563,0.05522473528981209,-0.16285336017608643,0.35335254669189453,-0.041670870035886765,-0.21147452294826508,-0.41844430565834045,-0.07539746165275574,0.4936259984970093,0.3816412687301636,0.052217233926057816,0.08967920392751694,0.5195145606994629,-0.0008123062434606254,-0.252983957529068,0.01390964724123478,0.38849779963493347,0.10442329943180084,-0.16480222344398499,-0.08729635179042816,-0.30912163853645325,0.2790951728820801,0.07013800740242004,-0.17321228981018066,-0.08096233010292053,0.17657409608364105,-0.27482467889785767,0.22786833345890045,0.371191143989563,-0.2275402694940567,-0.3319803774356842,-0.08931936323642731,-0.1589905470609665,0.14963166415691376,-0.2505590617656708,0.06855931878089905,-0.1816139817237854,0.1501282900571823,0.15062445402145386,0.11208439618349075,-0.05419737100601196,-0.11155488342046738,-0.11650199443101883,-0.08972690254449844,-0.2750929594039917,0.08759267628192902,0.02289672940969467,0.5979911684989929,0.18397486209869385,-0.27778998017311096,0.01919816993176937
